{"actor/dense_2/kernel:0": [[-0.06406354904174805, -0.11967726051807404, 0.23658287525177002, 0.0022461116313934326, -0.11767111718654633, -0.037605732679367065, 0.0614151656627655, 0.046782106161117554, -0.0655689686536789, -0.1894366443157196, 0.11227008700370789, -0.117293581366539, 0.23845964670181274, -0.2628021240234375, -0.2253425121307373, -0.19762106239795685, 0.1401711106300354, -0.09841589629650116, -0.1496688425540924, 0.10982072353363037, -0.10585108399391174, 0.04490700364112854, -0.002598673105239868, 0.07183381915092468, 0.20705291628837585, -0.2696087956428528, 0.14544054865837097, 0.26728731393814087, -0.07594437897205353, 0.24229449033737183, -0.01147344708442688, -0.039843276143074036, 0.03196430206298828, 0.013345301151275635, 0.17618033289909363, -0.15714424848556519, -0.01274120807647705, 0.006018579006195068, 0.027166128158569336, 0.25370532274246216], [-0.31774985790252686, 0.023965591564774513, 0.4209679961204529, -0.3509218096733093, -0.21101875603199005, 0.33736515045166016, 0.1923540234565735, 0.07971764355897903, 0.1349795013666153, -0.13257214426994324, -0.06910887360572815, -0.23577134311199188, -0.06446202844381332, 0.07934561371803284, 0.33115822076797485, 0.2012917399406433, -0.040916118770837784, -0.18670181930065155, -0.13191021978855133, -0.0464281365275383, 0.15286190807819366, 0.43659406900405884, -0.08688507974147797, 0.029995232820510864, -0.1899712085723877, -0.09598954021930695, 0.04041149467229843, 0.36659595370292664, 0.09039082378149033, -0.25358709692955017, 0.019020885229110718, 0.08264870196580887, 0.24876180291175842, 0.19308282434940338, -0.07921560108661652, 0.1882283240556717, -0.24483607709407806, 0.41416135430336, 0.26585954427719116, -0.1816912144422531], [-0.027722811326384544, 0.1610855758190155, 0.1457388997077942, 0.28115588426589966, 0.01801292784512043, 0.3610876798629761, -0.14092576503753662, 0.16953061521053314, 0.2772129476070404, 0.19951143860816956, 0.15372683107852936, 0.049371182918548584, 0.07880023121833801, -0.20089489221572876, -0.1016981303691864, -0.11133724451065063, 0.13109201192855835, 0.2733834683895111, -0.02357536554336548, 0.17778930068016052, -0.00424927705898881, -0.03743554279208183, 0.03294333815574646, 0.09310296177864075, 0.01173799205571413, 0.007775876671075821, 0.009951267391443253, 0.29655221104621887, -0.20501354336738586, 0.32941898703575134, -0.09326501190662384, 0.21742302179336548, -0.13615112006664276, -0.25602051615715027, 0.09973744302988052, -0.06467374414205551, 0.020803432911634445, -0.03744859993457794, -0.14672702550888062, 0.218856081366539], [-0.134762242436409, 0.05952312797307968, -0.17009589076042175, -0.0629505142569542, 0.14606226980686188, 0.4558976888656616, 0.06962454319000244, -0.028914226219058037, -0.04405735805630684, -0.23818211257457733, -0.20525135099887848, 0.10775178670883179, 0.09357158839702606, -0.3169618546962738, 0.3547346591949463, 0.009983167052268982, -0.08698347955942154, -0.09006240963935852, -0.09439171850681305, -0.051103487610816956, -0.2728329300880432, 0.18851639330387115, 0.01147195789963007, 0.024319708347320557, 0.11396697908639908, -0.05695001035928726, -0.23821508884429932, 0.3924923241138458, 0.13635209202766418, 0.2838509976863861, -0.05074658989906311, -0.276190847158432, 0.11950263381004333, -0.06792774796485901, 0.12494955211877823, 0.12602292001247406, -0.16710937023162842, -0.02012522704899311, 0.07489041984081268, -0.279194176197052], [-0.27167510986328125, -0.13785317540168762, -0.6284666061401367, 0.7450441718101501, 0.08129589259624481, 0.47579964995384216, -0.06513339281082153, 0.26180949807167053, 0.46676912903785706, 0.36726728081703186, -0.18197952210903168, 0.2329156994819641, 0.35790035128593445, -0.16474856436252594, -0.6001794338226318, -0.20975059270858765, 0.18429486453533173, 0.23223090171813965, -0.06152990460395813, 0.4649462103843689, -0.11134691536426544, 0.06415756046772003, -0.011464366689324379, -0.09117281436920166, 0.4911934733390808, 0.2779964208602905, 0.032810747623443604, -0.13526445627212524, -0.24312856793403625, 0.15701331198215485, 0.1867055892944336, 0.2631509006023407, 0.13059088587760925, 0.09401703625917435, 0.12160158157348633, 0.0341663584113121, 0.1418638527393341, -0.24740557372570038, -0.4866146147251129, -0.16837602853775024], [0.16419948637485504, 0.1349220871925354, -0.07876555621623993, -0.05465422570705414, -0.20875205099582672, 0.19608953595161438, -0.21635276079177856, -0.20424386858940125, -0.05514521524310112, -0.13810612261295319, 0.042252808809280396, -0.17503130435943604, 0.03925124555826187, 0.16328205168247223, 0.0589485727250576, 0.11799967288970947, 0.08961589634418488, -0.23155519366264343, 0.22877073287963867, -0.21180790662765503, 0.07167339324951172, -0.13542301952838898, 0.01742452383041382, -0.007052093744277954, 0.2754696011543274, -0.16473683714866638, -0.044529274106025696, 0.1931084394454956, -0.04209153354167938, 0.14537358283996582, 0.0291520357131958, 0.2647101581096649, 0.23477746546268463, 0.18445594608783722, 0.22056269645690918, 0.08133407682180405, 0.01038411259651184, -0.15270456671714783, 0.03278737887740135, 0.182527557015419], [-0.3592570424079895, -0.07405015081167221, -0.06288114190101624, -0.3296106159687042, -0.07131456583738327, -0.12420825660228729, 0.10080826282501221, -0.1091310977935791, 0.13247743248939514, 0.11410854756832123, -0.20478542149066925, 0.08674493432044983, -0.2948248088359833, 0.14853836596012115, 0.015948107466101646, 0.2109590619802475, -0.17036691308021545, -0.29749929904937744, -0.004474908113479614, -0.3202597498893738, 0.0732472762465477, 0.1746649295091629, 0.06400545686483383, 0.187977135181427, -0.3783891797065735, -0.11212816089391708, -0.19334366917610168, -0.028213605284690857, 0.12117496132850647, 0.173831507563591, 0.16261598467826843, -0.18937133252620697, 0.24074573814868927, 0.03914874419569969, -0.13491269946098328, 0.18686455488204956, -0.2022044062614441, 0.2577482759952545, 0.43220362067222595, -0.19250990450382233], [0.1420920193195343, -0.1350528448820114, 0.15808036923408508, 0.1204291358590126, -0.06734412163496017, -0.0468602180480957, 0.1666262447834015, 0.19892585277557373, 0.1226152628660202, -0.162544846534729, -0.19401778280735016, -0.22320108115673065, 0.006177877075970173, 0.13065211474895477, 0.15801168978214264, -0.1582528054714203, 0.26426777243614197, 0.3268149197101593, -0.2434455007314682, 0.0641617551445961, 0.14302481710910797, 0.011574302799999714, 0.3056401312351227, -0.22923800349235535, 0.2885986864566803, 0.23444721102714539, -0.18626050651073456, -0.0748930275440216, 0.17895177006721497, 0.1102093905210495, -0.1831435114145279, 0.3204506039619446, -0.1604384332895279, -0.029471686109900475, -0.050210416316986084, 0.28426486253738403, -0.12792925536632538, 0.0784129947423935, -0.1091458648443222, 0.10651721805334091], [-0.14890477061271667, -0.05023378133773804, 0.14541378617286682, -0.07190178334712982, -0.2183106541633606, 0.05121240019798279, -0.1456882804632187, 0.1743224859237671, 0.1924440562725067, -0.2282382845878601, 0.08559712767601013, -0.1936296671628952, 0.09084314107894897, -0.0743437111377716, -0.14432795345783234, 0.09593310952186584, 0.06008332967758179, -0.2386428862810135, 0.009689778089523315, -0.15667177736759186, 0.13722112774848938, -0.005782127380371094, 0.009745270013809204, 0.21734508872032166, 0.08955112099647522, 0.21794140338897705, 0.05079466104507446, 0.13440600037574768, 0.27189505100250244, 0.09498399496078491, -0.1169624775648117, 0.10700032114982605, 0.19084423780441284, 0.20413938164710999, -0.08855290710926056, -0.06288115680217743, -0.2652721107006073, -0.062464192509651184, 0.07368862628936768, -0.162835955619812], [0.16454653441905975, 0.03667997568845749, -0.13747625052928925, -0.2812570631504059, 0.10071282088756561, 0.26090022921562195, -0.12979914247989655, -0.18808984756469727, 0.26602572202682495, 0.22035643458366394, -0.152047798037529, -0.23851288855075836, -0.06452953815460205, -0.40997955203056335, 0.22456128895282745, -0.4954040050506592, 0.08984710276126862, -0.20675058662891388, -0.25485020875930786, -0.23457098007202148, -0.18587221205234528, 0.3670502305030823, -0.12612439692020416, 0.23371833562850952, 0.1960219144821167, -0.07779787480831146, -0.009115209802985191, 0.2722366750240326, -0.10002253949642181, -0.11977416276931763, -0.21337589621543884, -0.15865731239318848, -0.2708558738231659, -0.05911581963300705, 0.01809767447412014, 0.2750663161277771, 0.02233542874455452, -0.0029010374564677477, 0.2237013578414917, -0.2804730236530304], [0.1672128438949585, -0.18546737730503082, 0.13295556604862213, -0.07797544449567795, 0.21651090681552887, 0.04027147963643074, 0.21575447916984558, 0.04597201943397522, 0.28250351548194885, 0.014127708040177822, 0.027968432754278183, -0.1919001042842865, -0.16553343832492828, 0.03470958024263382, -0.33306124806404114, 0.10181140154600143, -0.16790425777435303, 0.03725319355726242, -0.14054137468338013, 0.0013059483608230948, -0.056771621108055115, 0.04014457017183304, 0.2732817828655243, -0.00335085391998291, 0.20295140147209167, 0.03117486834526062, -0.25126755237579346, -0.17882421612739563, -0.07617978006601334, -0.09646616876125336, -0.038552820682525635, 0.27398309111595154, 0.2504170835018158, 0.2347053587436676, 0.0999583750963211, 0.10381440073251724, -0.14235134422779083, 0.12043235450983047, -0.16593435406684875, -0.10463984310626984], [-0.2584450840950012, -0.02922286093235016, 0.42948609590530396, -0.4387259781360626, -0.0067735640332102776, -0.16306811571121216, -0.17449556291103363, -0.023267630487680435, -0.19010694324970245, -0.16170305013656616, -0.26904281973838806, 0.17863771319389343, 0.009486868046224117, -0.0014834043104201555, 0.1531672328710556, -0.0933794155716896, -0.02050052024424076, -0.1879863739013672, 0.07588541507720947, 0.023409906774759293, -0.09014353156089783, 0.29670530557632446, -0.03431595489382744, -0.11792948842048645, 0.07353746145963669, 0.03709683194756508, -0.10237929224967957, -0.3264470398426056, 0.10804647207260132, -0.0878336951136589, -0.19820713996887207, -0.39222607016563416, 0.1184995099902153, 0.3311965763568878, -0.43949010968208313, -0.11501241475343704, -0.013435964472591877, 0.14765913784503937, 0.3097228705883026, 0.3136391341686249], [0.320913165807724, -0.1514607071876526, 0.3782695531845093, 0.15915518999099731, -0.23912976682186127, -0.043977800756692886, -0.1236279159784317, -0.18192726373672485, 0.11046683043241501, -0.0949811115860939, -0.07898618280887604, -0.21596452593803406, -0.08108678460121155, 0.08189882338047028, -0.11511734873056412, 0.15293003618717194, 0.12050749361515045, -0.1623414307832718, 0.05145221948623657, 0.11131855845451355, -0.20086286962032318, 0.2969667613506317, -0.20009681582450867, 0.13580316305160522, -0.1615622490644455, -0.228395015001297, -0.2127436101436615, -0.16608306765556335, 0.19607579708099365, -0.1290469616651535, -0.17466259002685547, 0.09152133017778397, -0.096906378865242, 0.14484699070453644, -0.1943931132555008, 0.16417951881885529, -0.23301105201244354, 0.376522958278656, 0.2704542577266693, 0.2536941170692444], [-0.1909606009721756, 0.19730819761753082, -0.07947526127099991, -0.18017823994159698, 0.2642824947834015, 0.17448948323726654, -0.2470715045928955, 0.14826957881450653, 0.270823210477829, 0.20910722017288208, -0.1950250267982483, -0.005686759948730469, -0.019259154796600342, -0.2148987501859665, 0.15513265132904053, 0.0033332407474517822, 0.1898658275604248, -0.07706990092992783, 0.027965784072875977, 0.12175987660884857, -0.2762964367866516, 0.20079107582569122, -0.016292359679937363, -0.20051395893096924, -0.25050902366638184, 0.020581554621458054, -0.08201414346694946, -0.05290590599179268, -0.2590240240097046, -0.17798376083374023, -0.21838071942329407, 0.2643881142139435, -0.21059812605381012, 0.2362276017665863, 0.18566636741161346, -0.09789741039276123, -0.20081624388694763, 0.0774882361292839, -0.26763659715652466, 0.0857359766960144], [0.49194833636283875, -0.19679121673107147, -0.02658100053668022, 0.30644363164901733, 0.07343970239162445, -0.2766340970993042, -0.23754961788654327, 0.08045860379934311, -0.08774532377719879, 0.0693729817867279, 0.09676516056060791, -0.054165035486221313, 0.1174340471625328, 0.27897170186042786, -0.10496507585048676, 0.27026575803756714, -0.13902632892131805, -0.006053057499229908, 0.09701058268547058, -0.2554590702056885, -0.24172945320606232, -0.5111537575721741, 0.2099282443523407, -0.266964852809906, 0.26509636640548706, -0.12920156121253967, -0.17227815091609955, -0.0498981848359108, 0.09210772067308426, -0.07243970781564713, 0.10075381398200989, 0.15783727169036865, -0.03510717675089836, 0.2716165781021118, -0.1956697553396225, 0.09851091355085373, 0.13985876739025116, -0.15753625333309174, -0.3312787413597107, 0.06010304018855095], [-0.25453251600265503, -0.19371755421161652, 0.2541368305683136, -0.012658616527915001, -0.30437564849853516, -0.2015080600976944, -0.18156836926937103, -0.12191972881555557, -0.1368524432182312, -0.22019900381565094, 0.15180037915706635, 0.05499178171157837, 0.18074600398540497, -0.27054715156555176, 0.27791628241539, -0.009304787963628769, 0.05966545268893242, -0.2600249648094177, 0.025854051113128662, -0.40754619240760803, 0.12259706109762192, 0.0002995374670717865, 0.09024455398321152, -0.07542373239994049, -0.2313106209039688, -0.19085782766342163, -0.07265441119670868, 0.07648462802171707, -0.15803252160549164, -0.006837909575551748, -0.17732976377010345, -0.3529090881347656, 0.07041221857070923, -0.18154102563858032, -0.2473670393228531, 0.16726690530776978, 0.14238952100276947, 0.2436857521533966, -0.0831492468714714, 0.13657157123088837], [-0.07236927002668381, 0.15277805924415588, -0.41053617000579834, 0.7391722202301025, 0.3510350286960602, -0.1617335081100464, -0.07310110330581665, -0.20767782628536224, -0.10344891250133514, 0.702397346496582, -0.2576030194759369, 0.22844403982162476, 0.20164021849632263, 0.08247300237417221, -0.276384174823761, 0.09312891960144043, -0.08190232515335083, 0.35099756717681885, 0.16009414196014404, 0.2417035549879074, 0.1454511135816574, -0.3971337080001831, 0.2604559063911438, 0.2254246473312378, 0.03444325178861618, 0.19563880562782288, -0.033806782215833664, -0.2389182299375534, -0.03823172301054001, 0.16768360137939453, -0.04023882746696472, 0.3505314886569977, -0.10230294615030289, 0.07642535865306854, 0.06812908500432968, 0.30079710483551025, -0.0738644003868103, 0.08510494977235794, -0.4157533049583435, 0.3182166814804077], [0.06759673357009888, -0.22051683068275452, -0.15610942244529724, 0.11862187832593918, -0.13304580748081207, -0.027764955535531044, -0.1225944459438324, -0.09568338096141815, 0.19609685242176056, 0.15279574692249298, 0.15732111036777496, -0.2734527587890625, -0.25166037678718567, -0.18614786863327026, 0.0642392486333847, -0.26737460494041443, 0.04715125262737274, 0.17680874466896057, -0.12460020184516907, -0.12935414910316467, -0.23358261585235596, 0.23235103487968445, 0.12987613677978516, 0.10698279738426208, 0.22628362476825714, -0.05228710174560547, 0.21673119068145752, 0.24027349054813385, 0.1373739242553711, 0.22797265648841858, -0.16455858945846558, 0.097928486764431, 0.08243581652641296, -0.04516860842704773, 0.01076453272253275, 0.08109038323163986, 0.1996259093284607, 0.083421491086483, 0.23704491555690765, -0.03933790326118469], [-0.2728041708469391, 0.12460575997829437, 0.2415064424276352, 0.26274940371513367, -0.02504693530499935, 0.04303234815597534, -0.031648412346839905, -0.13912691175937653, -0.25426170229911804, -0.05700705200433731, 0.04326897859573364, 0.026502758264541626, 0.20158977806568146, -0.25791215896606445, -0.14689971506595612, 0.18672427535057068, -0.1159585490822792, -0.12467493861913681, -0.16731587052345276, -0.16182495653629303, -0.17772948741912842, -0.11617972701787949, 0.09286226332187653, 0.0633518397808075, -0.13549281656742096, -0.10763947665691376, -0.09881053119897842, 0.2370663285255432, -0.022837549448013306, 0.1640985906124115, -0.11618712544441223, 0.02235906571149826, -0.04497143626213074, 0.0884755328297615, 0.04418012872338295, -0.20992140471935272, -0.1359112411737442, -0.1535836011171341, 0.23905088007450104, 0.1536543369293213], [0.06671439111232758, -0.18450601398944855, 0.07963847368955612, -0.007089713122695684, -0.030743280425667763, -0.22036127746105194, -0.009754031896591187, -0.1577843725681305, -0.08607279509305954, -0.05436726287007332, -0.12064268440008163, 0.1333073079586029, -0.3014596998691559, 0.3277682662010193, -0.07502544671297073, -0.0074756937101483345, -0.06676129251718521, 0.1925782412290573, 0.04031097888946533, -0.35480576753616333, -0.07408922165632248, -0.06970170885324478, 0.14551810920238495, -0.22527140378952026, 0.15520891547203064, -0.3617748022079468, 0.1580469310283661, 0.3034626543521881, -0.18378140032291412, 0.0028921160846948624, -0.04155723750591278, 0.023822173476219177, 0.2005378156900406, 0.053364645689725876, 0.2183692902326584, -0.29873114824295044, -0.04372141510248184, -0.11175987869501114, 0.14695215225219727, 0.04367068037390709], [-0.026001423597335815, 0.27332985401153564, -0.03838467597961426, 0.245871901512146, -0.2511683702468872, -0.04200148582458496, -0.21008352935314178, 0.23416459560394287, -0.22684557735919952, 0.04556077718734741, -0.2498127967119217, -0.20827756822109222, 0.11188101768493652, 0.09519705176353455, 0.2616792917251587, -0.10260820388793945, 0.2243860363960266, 0.05505439639091492, 0.004801809787750244, 0.053528428077697754, 0.0831264853477478, -0.2617299258708954, -0.19434717297554016, -0.2586033344268799, -0.08104068040847778, -0.22330744564533234, 0.2559037208557129, 0.004619210958480835, -0.10252135992050171, 0.19874757528305054, 0.17460793256759644, -0.236871600151062, 0.2433825135231018, -0.041200071573257446, -0.03372238576412201, -0.2490256130695343, -0.08754874765872955, 0.2421252727508545, 0.24138033390045166, 0.06710374355316162], [0.013442319817841053, 0.03393634408712387, 0.2744503915309906, -0.04984712973237038, -0.3465259075164795, -0.06507570296525955, -0.2713617980480194, -0.2838682532310486, -0.1605331301689148, 0.018042437732219696, 0.1655031442642212, -0.22662128508090973, -0.15665462613105774, 0.35446831583976746, 0.2792739272117615, -0.04307966306805611, 0.04174350947141647, -0.1658318042755127, -0.06929337978363037, 0.18142516911029816, -0.02434467151761055, 0.07249058783054352, -0.014405827969312668, -0.22487154603004456, -0.34864044189453125, -0.25516870617866516, -0.22864440083503723, 0.1347835659980774, -0.2184235155582428, 0.08113151788711548, 0.06543120741844177, 0.077033132314682, 0.046047620475292206, 0.04701126366853714, -0.1260376125574112, 0.015600214712321758, -0.23299545049667358, 0.004658696241676807, 0.17463338375091553, 0.32621803879737854], [0.38526293635368347, -0.2232561856508255, -0.142148956656456, 0.40936776995658875, 0.32052183151245117, 0.1343018263578415, -0.1892264485359192, -0.2528174817562103, 0.0770159661769867, 0.377304345369339, -0.10258041322231293, 0.2666570544242859, 0.00998581200838089, -0.16547134518623352, -0.5561989545822144, 0.0876065269112587, 0.4768276512622833, 0.48235076665878296, 0.06734585762023926, -0.1726371943950653, 0.25232383608818054, -0.4454307556152344, 0.4207921028137207, 0.1662329137325287, 0.10412997752428055, 0.14681968092918396, 0.1829337775707245, -0.08600092679262161, -0.04893452301621437, 0.4861123561859131, 0.08932080864906311, 0.590735137462616, 0.19354066252708435, 0.035161688923835754, 0.2855566442012787, 0.21647480130195618, -0.1449509561061859, -0.5166602730751038, -0.5266447067260742, -0.2195700854063034], [0.011767368763685226, 0.22489222884178162, -0.24151401221752167, -0.0175492987036705, 0.15634803473949432, -0.07451961189508438, -0.22446666657924652, 0.14355990290641785, -0.22544950246810913, -0.2650415897369385, -0.11031407117843628, 0.012938767671585083, 0.10376164317131042, -0.05046641081571579, -0.22435754537582397, 0.24879679083824158, -0.12556979060173035, -0.24714066088199615, 0.14676907658576965, -0.12892675399780273, 0.2519282102584839, -0.08267354965209961, 0.11107584834098816, 0.1264113187789917, -0.17017771303653717, 0.00998323131352663, -0.16906234622001648, 0.14901354908943176, 0.024311602115631104, -0.23447705805301666, 0.2610355615615845, 0.2745639681816101, -0.09227105230093002, 0.2125038355588913, -0.19677290320396423, 0.24837028980255127, -0.06929279863834381, -0.07379063963890076, -0.026358675211668015, 0.07356386631727219], [-0.1455783247947693, -0.23348867893218994, -0.04456596076488495, -0.09506659209728241, -0.24446165561676025, -0.08041620254516602, 0.12676319479942322, -0.24346671998500824, 0.11904379725456238, -0.0020939111709594727, -0.06723375618457794, -0.18503272533416748, 0.1491144299507141, -0.25811848044395447, 0.023314446210861206, -0.068936288356781, 0.03707972168922424, -0.0026363730430603027, 0.21253719925880432, -0.1317589282989502, 0.22612270712852478, -0.12387433648109436, 0.12637534737586975, -0.013098746538162231, 0.029374152421951294, 0.13635051250457764, 0.05267536640167236, -0.127766951918602, -0.028649792075157166, 0.07481518387794495, -0.13465340435504913, 0.034223705530166626, -0.21108433604240417, 0.24454647302627563, -0.19429349899291992, -0.22561758756637573, -0.16677865386009216, -0.18157228827476501, -0.009858280420303345, 0.07959017157554626], [-0.03200266882777214, 0.10829377174377441, -0.4300324618816376, 0.29505085945129395, -0.03138841316103935, 0.0030166967771947384, 0.17336460947990417, -0.05171285942196846, -0.02301185391843319, 0.0762355625629425, -0.02232365868985653, -0.16183598339557648, -0.06320803612470627, 0.04477066919207573, -0.119721420109272, 0.13840019702911377, 0.37445488572120667, 0.3372092843055725, -0.07728740572929382, -0.1409073919057846, 0.03700105845928192, -0.14380796253681183, 0.18276754021644592, -0.08191724121570587, 0.3942890465259552, -0.16666296124458313, 0.16395168006420135, 0.4644613564014435, -0.2217307984828949, 0.22726988792419434, -0.19261181354522705, 0.16668397188186646, -0.08802860975265503, -0.3514838218688965, -0.03513636812567711, -0.026544863358139992, -0.011648266576230526, -0.39064159989356995, -0.245769202709198, -0.07399170845746994], [0.2355012446641922, 0.11654026806354523, -0.05613447725772858, -0.07347568869590759, 0.2020541876554489, 0.0564640611410141, -0.2657283842563629, -0.1021629050374031, -0.08803950250148773, 0.16976721584796906, -0.08318523317575455, 0.0371018648147583, -0.050552889704704285, -0.06945448368787766, 0.11754638701677322, 0.1336006373167038, 0.21618828177452087, 0.1416778266429901, 0.08580827713012695, -0.18961042165756226, 0.07438010722398758, 0.21000710129737854, -0.1502332240343094, -0.10110233724117279, -0.04235806688666344, 0.2738717496395111, 0.007808218244463205, -0.22649194300174713, -0.25667932629585266, 0.08809772878885269, -0.1245415061712265, -0.16797737777233124, -0.08219780772924423, -0.1506032943725586, 0.05155683681368828, -0.19827298820018768, 0.0343419574201107, 0.22272786498069763, 0.13137933611869812, -0.08469823002815247], [0.04950574040412903, 0.049958571791648865, -0.016952838748693466, 0.010400088503956795, -0.056952495127916336, 0.08468244969844818, 0.028654098510742188, -0.08131146430969238, -0.18737377226352692, -0.2935859262943268, -0.19753842055797577, -0.24369563162326813, -0.27305471897125244, -0.38588544726371765, 0.380269318819046, -0.189181849360466, -0.027151651680469513, 0.05190305784344673, 0.030688732862472534, 0.15893450379371643, -0.022844107821583748, 0.4300883710384369, -0.2137671858072281, -0.11587841808795929, -0.3299983739852905, 0.10591056197881699, 0.0925850048661232, 0.37128254771232605, -0.2580660283565521, 0.08412474393844604, 0.19387483596801758, -0.2375858873128891, -0.12505942583084106, 0.11852696537971497, -0.2033490389585495, -0.053146425634622574, 0.20493048429489136, 0.26096111536026, 0.06809297204017639, -0.17281252145767212], [0.041882067918777466, 0.1941959261894226, -0.048072680830955505, -0.07264990359544754, 0.3324233293533325, 0.11295543611049652, -0.08558407425880432, -0.1930137574672699, 0.2811298072338104, 0.10429520905017853, 0.07362125813961029, 0.10613000392913818, 0.11341674625873566, 0.14788368344306946, -0.09908883273601532, -0.2336246520280838, 0.02197200432419777, 0.031008506193757057, -0.07680945098400116, 0.2799935042858124, 0.029812708497047424, 0.1913166046142578, 0.29279962182044983, -0.15146395564079285, 0.24542933702468872, 0.40023091435432434, -0.1504736840724945, 0.2974942922592163, -0.007542179897427559, 0.2935218811035156, -0.1191176325082779, 0.23892220854759216, -0.08809681981801987, 0.18595780432224274, 0.28757622838020325, -0.11128087341785431, 0.17139898240566254, -0.18946616351604462, -0.018019428476691246, -0.30525222420692444], [0.037601225078105927, -0.17538192868232727, -0.01658765599131584, 0.07130596041679382, 0.3325199484825134, 0.5002323389053345, -0.06197264790534973, -0.2712983191013336, -0.23389723896980286, -0.10250167548656464, 0.043598052114248276, -0.20380964875221252, 0.2235356867313385, -0.36271220445632935, 0.11962950974702835, -0.43113601207733154, -0.13973255455493927, 0.1756768822669983, 0.17696568369865417, 0.3676639497280121, -0.06692057847976685, 0.26658400893211365, -0.15749508142471313, -0.23472663760185242, -0.15469196438789368, 0.08022233843803406, 0.08937593549489975, 0.5291244983673096, -0.24467302858829498, -0.04825287684798241, 0.1746266782283783, 0.0662948489189148, -0.15995179116725922, 0.07406552881002426, -0.06219768524169922, 0.2868037223815918, -0.13677987456321716, -0.015264798887073994, 0.09860710054636002, -0.20168456435203552], [0.3436509370803833, 0.15505874156951904, -0.16248808801174164, 0.08072076737880707, -0.18305763602256775, 0.12572933733463287, -0.26396656036376953, 0.010822108015418053, -0.27193012833595276, 0.20988714694976807, -0.22882011532783508, -0.230532705783844, 0.03745148330926895, 0.18009069561958313, 0.2935408055782318, -0.0459400936961174, -0.2561708092689514, -0.2516048848628998, -0.15229900181293488, -0.27077069878578186, 0.11934427171945572, -0.2058066874742508, -0.1397838145494461, -0.08479799330234528, -0.05758035555481911, -0.12118451297283173, 0.2539578378200531, -0.11996559053659439, 0.05434640869498253, -0.1421840339899063, 0.2514146566390991, -0.16455945372581482, -0.15089015662670135, 0.33735018968582153, -0.31203004717826843, 0.1345871537923813, -0.15593811869621277, 0.17643290758132935, 0.22474470734596252, 0.20852284133434296], [0.19217649102210999, -0.12039470672607422, -0.020576953887939453, -0.23925848305225372, 0.1609632670879364, -0.055381789803504944, 0.013546526432037354, -0.11092393100261688, -0.12678779661655426, -0.23721668124198914, -0.21692754328250885, -0.19369274377822876, -0.008233726024627686, -0.09412185847759247, 0.04360753297805786, 0.12643194198608398, 0.17044493556022644, -0.19704438745975494, 0.21984225511550903, -0.08304591476917267, 0.0489422082901001, 0.12479603290557861, 0.18888986110687256, 0.08102214336395264, 0.05093562602996826, 0.24018245935440063, 0.11416217684745789, 0.21222275495529175, 0.27027738094329834, -0.06509244441986084, 0.04406130313873291, -0.15195320546627045, 0.08993014693260193, -0.07893580198287964, 0.1871543526649475, 0.23318099975585938, 0.2103123664855957, 0.12140557169914246, 0.22355639934539795, -0.07902780175209045], [0.044312894344329834, 0.11475136131048203, 0.2449059933423996, 0.18349888920783997, 0.14741864800453186, 0.2792869210243225, -0.05997113883495331, -0.1917591392993927, -0.014427538961172104, 0.17972958087921143, -0.23953963816165924, 0.01729080080986023, 0.0500572994351387, 0.13025932013988495, -0.046149324625730515, 0.12633535265922546, -0.10245976597070694, 0.1626351922750473, -0.14509378373622894, 0.09111779183149338, -0.18326044082641602, 0.007416095584630966, -0.0655621737241745, -0.24592573940753937, 0.1725531667470932, 0.34087443351745605, -0.12153322994709015, 0.28447189927101135, 0.16670583188533783, 0.2936908006668091, 0.09667053818702698, -0.022455787286162376, -0.21912167966365814, -0.09087436646223068, 0.18411751091480255, -0.10846787691116333, 0.22047364711761475, 0.17053166031837463, 0.24036389589309692, -0.28221189975738525], [0.09692119061946869, 0.21716809272766113, -0.20715494453907013, 0.39874476194381714, 0.20758041739463806, 0.3035644292831421, 0.04948863387107849, -0.23473185300827026, 0.14764487743377686, 0.25695255398750305, 0.23417943716049194, -0.23636995255947113, -0.08506330847740173, -0.09227323532104492, -0.053726792335510254, -0.17964977025985718, -0.21434743702411652, 0.20920085906982422, -0.27066770195961, 0.07224893569946289, -0.28739580512046814, 0.023791804909706116, 0.13411855697631836, -0.14962750673294067, 0.17286713421344757, -0.01575549691915512, -0.16771367192268372, -0.17532092332839966, -0.15285158157348633, 0.20497334003448486, -0.2066825032234192, -0.018809881061315536, -0.18250741064548492, -0.11724194884300232, -0.13768135011196136, 0.31346437335014343, -0.16150502860546112, -0.38126787543296814, -0.2819037437438965, -0.19627512991428375], [-0.2117103785276413, -0.18915405869483948, -0.02013218402862549, 0.1339087188243866, 0.03499177098274231, -0.09088283777236938, 0.04862990975379944, 0.134199857711792, 0.16369351744651794, 0.14076828956604004, 0.2420482635498047, 0.005992263555526733, 0.008290261030197144, 0.14319398999214172, -0.04870237410068512, 0.20804977416992188, 0.047290802001953125, 0.04990658164024353, -0.23238475620746613, 0.19560644030570984, -0.08459559082984924, -0.16707304120063782, 0.23374038934707642, -0.15771490335464478, 0.24554628133773804, -0.15320006012916565, 0.2689857482910156, -0.05367475748062134, -0.17877620458602905, 0.041751474142074585, -0.16227808594703674, -0.253423810005188, -0.1452769935131073, -0.24906179308891296, -0.20989437401294708, -0.071021169424057, 0.07445386052131653, -0.1695038080215454, -0.22346003353595734, 0.056636273860931396], [0.2807345390319824, 0.16528849303722382, -0.023848844692111015, -0.06268663704395294, -0.18008901178836823, -0.32336556911468506, 0.1393096148967743, 0.180254727602005, -0.41739097237586975, -0.2310004085302353, 0.21669217944145203, 0.24212288856506348, -0.38875702023506165, 0.30360597372055054, 0.2521461546421051, -0.4111781418323517, -0.05879173055291176, -0.354005366563797, -0.23860527575016022, -0.420803040266037, -0.2372114360332489, -0.28779178857803345, -0.06479823589324951, 0.2615281939506531, -0.29770368337631226, -0.2842501103878021, -0.264453262090683, -0.2951141893863678, -0.17251867055892944, -0.3274574279785156, -0.14199671149253845, -0.09261839091777802, 0.06979210674762726, -0.09468135982751846, 0.05953283607959747, -0.19251440465450287, -0.1310744434595108, 0.3017604947090149, -0.030324161052703857, -0.017557313665747643], [-0.29227960109710693, -0.18934985995292664, -0.4828625023365021, 0.33530178666114807, 0.5016394853591919, 0.07531962543725967, 0.2651771903038025, 0.11903201788663864, 0.3929143249988556, 0.11618485301733017, -0.26446449756622314, 0.17158666253089905, 0.02353697083890438, -0.42200350761413574, -0.5542961359024048, -0.07874522358179092, -0.011342616751790047, 0.5463617444038391, -0.2576163113117218, 0.3324102759361267, 0.15078286826610565, -0.44628167152404785, 0.5241502523422241, 0.050593405961990356, 0.4109364151954651, 0.15385077893733978, -0.0756385549902916, -0.017075801268219948, -0.10174759477376938, 0.36107611656188965, 0.11667180061340332, 0.2239333689212799, 0.005067646503448486, -0.2484334260225296, 0.2550811469554901, 0.16685275733470917, 0.18500295281410217, -0.6255413293838501, -0.33924442529678345, -0.1915668100118637], [0.22841493785381317, -0.10056547820568085, -0.0018171214032918215, 0.22607216238975525, 0.1818806231021881, -0.024167653173208237, 0.008199512958526611, -0.09403441101312637, 0.25907036662101746, 0.04035866633057594, 0.05788549408316612, -0.23877477645874023, 0.1587717980146408, 0.022518133744597435, 0.19738487899303436, -0.3032439351081848, -0.014574774540960789, -0.19913573563098907, -0.21764276921749115, -0.06872451305389404, 0.20953325927257538, -0.04502525180578232, -0.053174518048763275, -0.0236356258392334, 0.1851835548877716, 0.20298972725868225, 0.10811688005924225, -0.1672823429107666, 0.07096312940120697, 0.18123985826969147, -0.018694818019866943, 0.3012319803237915, -0.21893353760242462, 0.08836885541677475, 0.339006632566452, 0.0438111387193203, 0.07788858562707901, -0.0958738699555397, 0.20284108817577362, 0.2395680546760559], [0.3065117597579956, -0.19472819566726685, 0.03366648405790329, 0.30419808626174927, 0.22029978036880493, 0.34528982639312744, -0.18907980620861053, 0.1219908818602562, 0.010097016580402851, -0.007186868693679571, 0.1452900618314743, -0.03338952362537384, 0.26724645495414734, -0.2025124728679657, -0.13179874420166016, -0.1912536323070526, 0.29893678426742554, 0.33345717191696167, 0.03916206955909729, 0.06009479612112045, 0.05466689169406891, -0.030675431713461876, -0.010191814973950386, -0.1962394416332245, 0.055252961814403534, 0.1712132692337036, -0.20709316432476044, 0.2211189866065979, -0.1776774674654007, 0.009638733230531216, -0.21444553136825562, 0.10954081267118454, 0.22559183835983276, -0.11685328185558319, 0.2340547889471054, 0.3263465166091919, -0.18339304625988007, -0.07259871810674667, -0.23806245625019073, -0.22452375292778015], [0.12181328982114792, -0.2163090705871582, -0.2569178342819214, 0.18996946513652802, 0.26731353998184204, -0.048933595418930054, -0.24658337235450745, 0.185574010014534, 0.06599327176809311, 0.36442625522613525, 0.09680245816707611, 0.19758370518684387, 0.16188406944274902, 0.358736515045166, 0.16078858077526093, 0.20790785551071167, -0.040350936353206635, 0.1929868757724762, -0.08387702703475952, 0.17401528358459473, -0.12828733026981354, 0.08406316488981247, 0.03822588548064232, 0.13521075248718262, 0.1745358258485794, 0.1700604408979416, 0.1918509304523468, -0.20518113672733307, -0.24525372684001923, -0.1822948455810547, -0.22128216922283173, -0.10742434859275818, -0.1354428380727768, 0.06634926795959473, -0.12616311013698578, 0.11749282479286194, -0.10390030592679977, 0.11898636072874069, -0.11263057589530945, 0.31167981028556824]], "actor/dense_1/kernel:0": [[-0.004837051033973694, 0.15058301389217377, -0.03425438329577446, 0.0007280346471816301, 0.0075581492856144905, 0.10042877495288849, 0.02889304608106613, -0.11926443129777908, -0.11612927913665771, 0.07279779016971588, -0.05035270005464554, 0.12994109094142914, 0.22912929952144623, 0.11861193180084229, -0.11831153929233551, 0.2615261971950531, -0.20949074625968933, -0.032027535140514374, 0.10608682036399841, -0.05765799432992935, -0.10859724879264832, 0.159021258354187, -0.25177085399627686, 0.09010125696659088, -0.1356160193681717, -0.2246866375207901, -0.1502836048603058, 0.1921818107366562, -0.1480637788772583, 0.10798659175634384, 0.033408720046281815, 0.007479682564735413, 0.004608160816133022, -0.12970243394374847, 0.10866501927375793, 0.11331989616155624, -0.13849018514156342, -0.17940106987953186, -0.1786305457353592, -0.2069307118654251], [0.11133086681365967, 0.1680452674627304, -0.019573502242565155, -0.09996381402015686, -0.08660578727722168, -0.025417955592274666, 0.15274421870708466, -0.21478837728500366, -0.004541307687759399, -0.1050344780087471, 0.018053796142339706, 0.0552707314491272, 0.12900984287261963, -0.10212396830320358, 0.09964670240879059, 0.04639920964837074, -0.1703433394432068, -0.1998751163482666, -0.10502390563488007, 0.074996717274189, 0.012274160981178284, 0.13200229406356812, -0.08662142604589462, -0.02521122246980667, -0.01084253191947937, -0.03777448832988739, -0.020952781662344933, 0.006966257467865944, -0.1964976042509079, -0.06946513056755066, 0.07313481718301773, -0.09692275524139404, 0.048814382404088974, 0.0326879546046257, 0.11204519867897034, 0.03271017223596573, -0.22314511239528656, -0.02123815380036831, -0.09034199267625809, -0.10283220559358597], [-0.06574293971061707, -0.041969798505306244, 0.05773816257715225, -0.16854354739189148, -0.007409693673253059, 0.08729006350040436, -0.12551052868366241, -0.06955014914274216, -0.10409770905971527, -0.07246597111225128, -0.1473425179719925, 0.056925904005765915, 0.012408400885760784, 0.03355049714446068, 0.10683278739452362, 0.16205129027366638, -0.14808489382266998, 0.03679923340678215, -0.054268013685941696, 0.09595019370317459, -0.008894070982933044, 0.16838675737380981, -0.028443077579140663, -0.12359149754047394, 0.007963091135025024, 0.10572618991136551, 0.0570996068418026, -0.042513202875852585, -0.0053026676177978516, -0.0636274442076683, 0.042561713606119156, -0.056066565215587616, -0.09181986004114151, 0.01088701281696558, 0.026418909430503845, 0.2577653229236603, -0.1377875804901123, -0.03344111889600754, -0.2848643958568573, -0.1201750785112381], [0.07047542929649353, 0.011822111904621124, 0.10367761552333832, 0.10779037326574326, -0.12875966727733612, -0.06939990073442459, -0.09943752735853195, 0.052687302231788635, 0.08772286772727966, 0.01470805611461401, 0.22453631460666656, -0.19888480007648468, -0.022199923172593117, -0.0015848709736019373, -0.046194057911634445, -0.1701793074607849, 0.012901876121759415, 0.10058824717998505, 0.09766469895839691, -0.021160772070288658, -0.06912700831890106, -0.0674610286951065, 0.21277357637882233, -0.012951483950018883, -0.09281337261199951, 0.19143325090408325, 0.11619023978710175, -0.08725633472204208, 0.22682727873325348, -0.09473645687103271, -0.1340765655040741, 0.08921299874782562, 0.22447393834590912, 0.18879662454128265, -0.0866282731294632, -0.08621882647275925, 0.12608084082603455, -0.06334047764539719, -0.04247094318270683, 0.11987598985433578], [0.11749982833862305, 0.014319411478936672, 0.17076192796230316, -0.10732389241456985, -0.12642711400985718, -0.08295275270938873, -0.031376175582408905, 0.20609724521636963, -0.09400496631860733, -0.03418174386024475, 0.07020453363656998, -0.015074620023369789, -0.026235831901431084, -0.10187434405088425, -0.008433718234300613, 0.027125410735607147, -0.09686997532844543, 0.10193194448947906, -0.09239464998245239, 0.13570961356163025, -0.14085039496421814, 0.04704933986067772, -0.01899242028594017, 0.13380534946918488, -0.08133240789175034, 0.057106588035821915, 0.12731114029884338, -0.06781661510467529, -0.003784080035984516, 0.1460411101579666, 0.027771303430199623, -0.12819720804691315, 0.16560673713684082, 0.1807190179824829, -0.13140495121479034, -0.04802144691348076, -0.13267789781093597, -0.0806637853384018, 0.1266956925392151, -0.022421205416321754], [-0.0004230290651321411, 0.11878311634063721, -0.09027840942144394, 0.02213386818766594, -0.13042135536670685, -0.1348622739315033, 0.016322173178195953, 0.04828529804944992, 0.0942620038986206, 0.15920665860176086, -0.07891444116830826, 0.04255849868059158, -0.04751959443092346, 0.11308874189853668, 0.04122054576873779, 0.10163325071334839, 0.1218375414609909, 0.08505964279174805, 0.03504890948534012, -0.13840718567371368, -0.14216549694538116, -0.07333895564079285, -0.17939147353172302, 0.13414515554904938, -0.06506481766700745, -0.14366161823272705, 0.06201630458235741, 0.20634634792804718, 0.01261831447482109, 0.03686533868312836, -0.01166567113250494, -0.10933798551559448, -0.011364382691681385, 0.020505204796791077, 0.0647604763507843, 0.01475616730749607, 0.09578678011894226, 0.026916628703475, -0.025685297325253487, -0.03521672263741493], [-0.13438214361667633, -0.0162782222032547, 0.008844379335641861, 0.027306778356432915, -0.04015752673149109, 0.0641234740614891, 0.03880127891898155, 0.013174696825444698, -0.009869173169136047, 0.1614452302455902, -0.019148454070091248, 0.11528723686933517, 0.15154732763767242, 0.10657628625631332, -0.018046574667096138, -0.05297131836414337, -0.11713573336601257, 0.14169175922870636, 0.03945867344737053, -0.015296440571546555, -0.12160658836364746, 0.07175106555223465, -0.03518897667527199, 0.005805230233818293, 0.1331598162651062, 0.051507703959941864, -0.15059922635555267, 0.10200615972280502, 0.10222543030977249, 0.18202517926692963, -0.074388287961483, -0.11168652772903442, 0.015081220306456089, -0.12983939051628113, 0.07679791748523712, -0.0970616564154625, -0.026464994996786118, 0.013109914027154446, 0.0775613859295845, -0.1497086137533188], [0.12056344747543335, 0.2252100110054016, -0.10520410537719727, 0.021467730402946472, -0.1547844260931015, -0.1315811276435852, 0.05786113813519478, -0.09150119125843048, -0.09378574788570404, -0.03547878563404083, -0.16618870198726654, 0.10756281763315201, 0.1356147974729538, -0.057496171444654465, 0.047459643334150314, 0.07933304458856583, -0.09428726136684418, -0.08430339395999908, 0.034377314150333405, -0.09389199316501617, 0.08557301759719849, 0.008842092007398605, -0.21061557531356812, 0.015678556635975838, -0.09253054112195969, -0.2787550985813141, -0.10365563631057739, 0.021148793399333954, -0.05427125096321106, 0.19050660729408264, 0.09120572358369827, -0.01596084237098694, 0.027207374572753906, 0.008046921342611313, 0.025375500321388245, 0.02186475321650505, 0.12081719934940338, 0.05814758688211441, -0.007872805930674076, -0.035656243562698364], [-0.05623377114534378, -0.08929861336946487, -0.013405689038336277, 0.06738410145044327, 0.06199411302804947, 0.12950503826141357, 0.1441878378391266, 0.06494767218828201, -0.06376252323389053, -0.09916333854198456, 0.07963643223047256, -0.08686036616563797, -0.05888973921537399, -0.07427757978439331, 0.09146280586719513, -0.08884882926940918, -0.08924348652362823, -0.04516075924038887, 0.14166656136512756, -0.057170331478118896, -0.023539721965789795, 0.17088650166988373, -0.15188513696193695, -0.040277156978845596, -0.10417558252811432, -0.17382799088954926, -0.07881269603967667, 0.05584113299846649, 0.09848687052726746, -0.07481037080287933, 0.10302333533763885, 0.13846704363822937, -0.054007258266210556, 0.05907434970140457, 0.13448688387870789, -0.03046308644115925, -0.14252817630767822, -0.10961027443408966, -0.11564505100250244, 0.043787673115730286], [-0.12713199853897095, -0.038300707936286926, 0.09322366863489151, 0.1662834733724594, -0.13677993416786194, -0.004604719579219818, -0.11088863760232925, 0.09259998798370361, -0.1451561599969864, 0.08677912503480911, -0.005701104179024696, -0.07458113133907318, 0.08264921605587006, -0.15611617267131805, 0.08749997615814209, 0.1309136599302292, 0.08960332721471786, 0.14163772761821747, -0.003381941933184862, 0.165581613779068, -0.08799195289611816, 0.057849153876304626, 0.1359337568283081, 0.11045480519533157, 0.04409988224506378, 0.21287207305431366, 0.056692227721214294, -0.1291300505399704, -0.09235695749521255, 0.14617633819580078, -0.05486353859305382, -0.018290862441062927, 0.026462426409125328, -0.13624630868434906, -0.06775829941034317, 0.06719084829092026, -0.16490775346755981, 0.030816929414868355, 0.1075938269495964, 0.005275809671729803], [-0.10892820358276367, 0.10642314702272415, -0.09786709398031235, -0.04973170906305313, -0.05711585283279419, -0.1272697001695633, -0.10034152865409851, 0.1600123643875122, -0.11647451668977737, -0.11288324743509293, -0.0033277845941483974, 0.019111834466457367, -0.10177352279424667, -0.1069067195057869, 0.2416987419128418, -0.028874145820736885, -0.09175117313861847, -0.044965073466300964, -0.14551687240600586, 0.011857378296554089, -0.017118588089942932, -0.1097320094704628, 0.031116856262087822, -0.12420734763145447, -0.129744753241539, -0.023506082594394684, -0.058003511279821396, -0.16954632103443146, -0.10855778306722641, 0.12142448127269745, -0.06150692328810692, 0.12822851538658142, -0.019723273813724518, -0.029854578897356987, 0.04850919544696808, 0.04734506458044052, -0.018568409606814384, -0.07216062396764755, 0.035916488617658615, -0.023770898580551147], [0.08577194809913635, -0.046058617532253265, -0.11425188183784485, -0.060315344482660294, -0.02856714464724064, -0.13567712903022766, 0.036549512296915054, 0.10024022310972214, 0.004225239157676697, -0.008859350346028805, -0.035092733800411224, 0.08585803955793381, 0.13359738886356354, 0.029537241905927658, -0.1301579773426056, 0.006534881889820099, 0.043025992810726166, 0.08566848188638687, 0.08391254395246506, -0.03256947919726372, -0.07327340543270111, 0.011572246439754963, -0.23058804869651794, 0.06637654453516006, -0.11970721185207367, -0.021001895889639854, 0.061308927834033966, 0.05933353677392006, 0.08840369433164597, -0.005952632986009121, 0.04177391901612282, 0.015009105205535889, 0.1195942834019661, 0.10094264149665833, 0.005781292915344238, 0.011569846421480179, 0.1579490602016449, -0.10362973064184189, -0.07528465986251831, 0.034448884427547455], [0.13653898239135742, 0.09202682226896286, -0.11885872483253479, 0.022646669298410416, -0.006582948844879866, -0.10093694925308228, 0.18310512602329254, -0.1716212034225464, 0.05536578595638275, -0.06939350068569183, 0.014750078320503235, 0.08682360500097275, 0.051513347774744034, 0.018993565812706947, 0.056863490492105484, -0.06276378035545349, -5.7658995501697063e-05, -0.009764145128428936, -0.017069784924387932, 0.10857370495796204, -0.04478760063648224, 0.029048487544059753, -0.0029057518113404512, -0.040677521377801895, 0.14254102110862732, -0.023686392232775688, 0.08634697645902634, -0.05495346337556839, -0.17861634492874146, 0.0764758437871933, -0.026991095393896103, 0.04431019723415375, -0.10358878970146179, -0.0721132680773735, -0.10535536706447601, -0.06420733779668808, -0.021544618532061577, 0.08125725388526917, -0.1484551727771759, -0.14454835653305054], [0.06527513265609741, 0.020240500569343567, 0.13621166348457336, -0.11222010850906372, 0.0476018562912941, -0.0906434878706932, 0.0976354107260704, 0.14964812994003296, 0.1335097849369049, 0.1281767040491104, -0.09697275608778, 0.007571412716060877, -0.10230277478694916, -0.06244799867272377, 0.08133922517299652, -0.12315721809864044, 0.10216928273439407, 0.13877099752426147, 0.010781731456518173, 0.02882450260221958, -0.12959864735603333, 0.1513533890247345, -0.029276715591549873, -0.08664766699075699, -0.0732443705201149, 0.14093342423439026, -0.15604743361473083, -0.11880654841661453, 0.019375309348106384, 0.13241632282733917, 0.099992536008358, 0.05681145191192627, 0.1223575621843338, 0.11445485800504684, 0.14072737097740173, 0.03373407572507858, -0.10902215540409088, 0.13859540224075317, 0.0030494066886603832, 0.15990717709064484], [-0.14401507377624512, -0.21977198123931885, 0.16872677206993103, 0.013160061091184616, -0.03181220963597298, 0.1189451813697815, -0.154598668217659, -0.04125622287392616, 0.027342423796653748, -0.07176600396633148, -0.029512198641896248, -0.201236754655838, -0.11990096420049667, -0.009950879961252213, -0.019891245290637016, -0.1609320193529129, 0.047701410949230194, 0.05922965332865715, -0.11383621394634247, 0.08683819323778152, -0.07701858878135681, -0.20402364432811737, 0.08029069751501083, -0.0015307165449485183, 0.14044904708862305, 0.2662372291088104, 0.1261824667453766, -0.12453828752040863, -0.017161862924695015, -0.07955686002969742, 0.051577966660261154, -0.10794882476329803, 0.15814372897148132, 0.030834054574370384, -0.08411509543657303, -0.0763235092163086, 0.05272923409938812, 0.12028932571411133, -0.11673760414123535, -0.01764358952641487], [0.1302705705165863, 0.18708017468452454, 0.0591258779168129, 0.23776260018348694, -0.10257488489151001, -0.10882963985204697, 0.1013624370098114, 0.03397631645202637, -0.00425383448600769, -0.06879476457834244, 0.0627349466085434, -0.026470836251974106, -0.013321030884981155, -0.11532320827245712, -0.025075191631913185, 0.14204053580760956, 0.03352385386824608, 0.06536111235618591, -0.0913301408290863, 0.1317639946937561, 0.12531492114067078, 0.044365182518959045, 0.07338912785053253, 0.07529520243406296, 0.018238693475723267, 0.14057224988937378, 0.008283101953566074, 0.12316004931926727, 0.07293927669525146, 0.1187489777803421, 0.13372457027435303, 0.0965641438961029, -0.04665811359882355, 0.005107357166707516, -0.09834733605384827, -0.027368836104869843, -0.046596504747867584, 0.10472285002470016, 0.04501080885529518, -0.19042129814624786], [0.007688775658607483, 0.1432039439678192, 0.15618093311786652, 0.14454706013202667, -0.10797267407178879, 0.009949655272066593, -0.1055227518081665, 0.0663132593035698, 0.023150786757469177, 0.08324740827083588, 0.11031682044267654, 0.09476146847009659, 0.10647112876176834, 0.01758614555001259, 0.0017604645108804107, -0.013278484344482422, -0.12028802186250687, 0.11493860185146332, 0.024357467889785767, 0.12080859392881393, 0.010257020592689514, 0.05414431914687157, 0.0807962641119957, -0.06128137931227684, 0.009781882166862488, -0.05977248772978783, -0.09134476631879807, 0.053962934762239456, 0.050250183790922165, 0.16398665308952332, -0.08822472393512726, 0.14358103275299072, -0.017479922622442245, -0.01890903152525425, -0.1016310602426529, 0.12142913788557053, -0.058885544538497925, 0.0477282851934433, 0.06445371359586716, -0.1225176602602005], [0.08048249781131744, 0.17331384122371674, 0.15356600284576416, 0.025084514170885086, -0.11259498447179794, -0.058071356266736984, 0.03391728922724724, 0.038956526666879654, 0.00029787421226501465, -0.01986466906964779, 0.0162326879799366, -0.06103309243917465, -0.07583550363779068, -0.15279178321361542, -0.04620124772191048, 0.051251769065856934, -0.11762423813343048, 0.005235742311924696, 0.12472277134656906, 0.07652204483747482, -0.11353714764118195, 0.08320719003677368, -0.15663368999958038, -0.13218152523040771, 0.13133466243743896, -0.1736912578344345, 0.1139228343963623, 0.14686082303524017, 0.03572656586766243, -0.09034404158592224, 0.03475895896553993, -0.1020997017621994, -0.06946808099746704, -0.13163000345230103, -0.13416603207588196, -0.0319889560341835, 0.08482051640748978, -0.10693467408418655, -0.03124585933983326, -0.0921601951122284], [0.03258931636810303, 0.14931057393550873, 0.14915020763874054, 0.12600262463092804, -0.017941277474164963, 0.026033548638224602, 0.16404692828655243, -0.08803263306617737, -0.06780443340539932, 0.05616925284266472, 0.10371383279561996, -0.03721403703093529, 0.13157375156879425, -0.1379663646221161, 0.047764748334884644, 0.01320753525942564, 0.012102697044610977, -0.0555289052426815, 0.09599149227142334, 0.13817833364009857, -0.033217042684555054, -0.10710140317678452, 0.1264130175113678, -0.10600460320711136, -0.10690849274396896, 0.16872024536132812, -0.06815164536237717, 0.07246092706918716, -0.02666906826198101, 0.09919113665819168, 0.08520552515983582, -0.09166628867387772, 0.08562470972537994, -0.13672597706317902, 0.05619838833808899, 0.00965393427759409, -0.055587317794561386, -0.10322830826044083, 0.11511421203613281, -0.2007479965686798], [0.09513173997402191, 0.11074191331863403, 0.12713077664375305, 0.11311514675617218, -0.11051919311285019, -0.09354738146066666, 0.10226588696241379, -0.04722215235233307, -0.05475519597530365, 0.10285039991140366, 0.06500185281038284, 0.13242146372795105, 0.05126563087105751, 0.09418927878141403, -0.041979871690273285, 0.09095349907875061, -0.03729110211133957, 0.13182218372821808, -0.1387866735458374, 0.07832357287406921, -0.14394889771938324, -0.08747435361146927, -0.10932023078203201, -0.14476706087589264, -0.0964181199669838, -0.15293072164058685, 0.035205647349357605, 0.12744152545928955, 0.10993703454732895, 0.03407874330878258, 0.020399322733283043, 0.04958738386631012, 0.058444794267416, -0.1412511020898819, -0.05085927993059158, 0.09844030439853668, 0.1609884351491928, -0.012943390756845474, -0.04614851251244545, 0.1528548151254654], [0.04420517385005951, 0.2715330421924591, -0.13125202059745789, -0.08081933856010437, -0.1943480521440506, 0.10259878635406494, 0.00841890275478363, -0.1819763481616974, 0.003094211220741272, -0.2815704047679901, -0.20149774849414825, 0.13401614129543304, 0.31300920248031616, -0.011165820993483067, 0.3464905321598053, 0.30532050132751465, -0.20004794001579285, -0.2984791398048401, 0.10550597310066223, 0.3781708776950836, -0.07775737345218658, 0.2938551604747772, -0.12820051610469818, -0.04087798669934273, -0.04348716139793396, -0.032932739704847336, -0.11613418906927109, 0.12316010892391205, -0.4001784920692444, -0.10124679654836655, 0.3902720510959625, 0.04205140471458435, -0.13502350449562073, -0.4043731689453125, -0.12585166096687317, 0.318591833114624, -0.47273436188697815, 0.13111865520477295, -0.18397285044193268, -0.0877515897154808], [-0.009750992059707642, -0.06527222692966461, 0.09646821022033691, 0.12714068591594696, -0.07607642561197281, 0.09709720313549042, -0.015742138028144836, -0.03061143308877945, -0.09762753546237946, 0.06087479367852211, 0.09686919301748276, -0.024213330820202827, 0.09752319753170013, -0.07652338594198227, -0.014893663115799427, 0.09041137248277664, 0.06563539803028107, -0.06613118946552277, -0.05161302164196968, -0.02685304917395115, 0.05645047128200531, 0.08164646476507187, 0.02187975123524666, 0.03178635612130165, 0.07701526582241058, -0.04369039088487625, 0.02683507464826107, 0.1104251965880394, 0.061095017939805984, 0.1224098801612854, 0.030698882415890694, -0.08827772736549377, 0.039407748728990555, -0.12021607160568237, 0.03896389901638031, 0.03573385998606682, -0.029497476294636726, -0.01719086430966854, 0.12216343730688095, -0.06631086766719818], [-0.06923855096101761, 0.08618118613958359, 0.0749601349234581, -0.017982034012675285, 0.032786622643470764, 0.004438971169292927, 0.11116678267717361, -0.07447823882102966, 0.03641204535961151, -0.09323981404304504, 0.14820881187915802, -0.1068674698472023, 0.08852899074554443, 0.1255549043416977, 0.04710974544286728, -0.14507070183753967, 0.084959976375103, 0.032466549426317215, -0.036189232021570206, 0.13840411603450775, -0.09072710573673248, -0.025498276576399803, 0.1616945117712021, 0.12164206057786942, -0.0037010610103607178, 0.1644815355539322, -0.14833194017410278, -0.011436848901212215, 0.12896868586540222, 0.1885901242494583, 0.017187686637043953, -0.09607109427452087, 0.14735735952854156, 0.11145030707120895, 0.13671228289604187, -0.11519750207662582, -0.1327284425497055, 0.13210715353488922, 0.17258496582508087, 0.033353935927152634], [-0.13162095844745636, 0.09130409359931946, 0.004890920128673315, 0.11289466172456741, -0.08306697756052017, -0.062305185943841934, -0.039916638284921646, 0.16748228669166565, 0.07318244874477386, -0.01823173463344574, -0.0035163690336048603, -0.04949168115854263, -0.14612427353858948, -0.0031928718090057373, 0.07680149376392365, -0.0014556479873135686, 0.03372775390744209, -0.0324837751686573, 0.09168514609336853, -0.16064953804016113, 0.02018071711063385, 0.05935757979750633, -0.1688411831855774, 0.04844892397522926, 0.10222779214382172, 0.03687392547726631, 0.1256876438856125, -0.07788718491792679, 0.060578811913728714, 0.08491449058055878, 0.10083431005477905, -0.0628846287727356, 0.056835561990737915, 0.16766275465488434, -0.04704289883375168, -0.024601591750979424, 0.20348002016544342, 0.17382143437862396, 0.14206847548484802, 0.1258426457643509], [-0.08184758573770523, -0.024366145953536034, 0.0794110968708992, 0.1260002851486206, 0.13500459492206573, 0.12037338316440582, -0.03728647902607918, -0.05371750146150589, 0.05310218036174774, 0.025237198919057846, 0.09957271069288254, 0.05974267050623894, 0.12178335338830948, 0.05081920325756073, -0.0583413727581501, 0.05903077870607376, 0.06328105926513672, -0.013851910829544067, -0.006901934277266264, 0.0557992160320282, -0.0949753150343895, -0.07412401586771011, -0.20547103881835938, 0.001694436650723219, -0.13642394542694092, -0.0382235124707222, 0.07011085748672485, 0.10518001019954681, -0.05316087231040001, -0.10800700634717941, 0.1344841718673706, 0.061472147703170776, 0.13780046999454498, -0.08416882902383804, -0.0055588483810424805, 0.035882141441106796, -0.07618565857410431, -0.033863894641399384, 0.06003131717443466, -0.0032669221982359886], [-0.037551283836364746, 0.011238835752010345, 0.06259211152791977, -0.009518901817500591, -0.07039020955562592, -0.005718800704926252, -0.17085470259189606, -0.020581867545843124, 0.003343716263771057, 0.14171627163887024, -0.04340334236621857, -0.02625749446451664, -0.036913998425006866, 0.04894596338272095, 0.004801460076123476, -0.14582999050617218, 0.1358116865158081, 0.038774989545345306, 0.0356711708009243, -0.13723355531692505, -0.1104949414730072, 0.05659501254558563, 0.04285762086510658, -0.0871121808886528, -0.13823868334293365, -0.010421878658235073, -0.1391652375459671, 0.04452244192361832, 0.15784774720668793, -0.0804329589009285, -0.1804078370332718, -0.10466991364955902, 0.0016852259868755937, 0.057319387793540955, -0.03868779540061951, 0.1112135797739029, 0.2261297106742859, -0.04131431505084038, -0.05632740631699562, 0.20222286880016327], [-0.06881729513406754, -0.2914286255836487, 0.1389993131160736, 0.0909159779548645, 0.06664054840803146, -0.03129665553569794, -0.2492707073688507, 0.18760743737220764, -0.11521030217409134, 0.1065802052617073, 0.3284889757633209, -0.04461287707090378, -0.2787086069583893, 0.1300542801618576, -0.12265598773956299, -0.23702004551887512, 0.3931601345539093, 0.13028527796268463, -0.10399433225393295, -0.19494250416755676, -0.012616991996765137, -0.21574415266513824, 0.1028459295630455, 0.06458566337823868, -0.03674444556236267, 0.1716015338897705, 0.11962763220071793, -0.061298053711652756, 0.03092270717024803, -0.06807580590248108, -0.25993841886520386, 0.0005119591951370239, 0.08498111367225647, 0.1236565113067627, 0.052070409059524536, -0.02468670904636383, 0.22958147525787354, 0.09503425657749176, -0.03464164957404137, 0.139866903424263], [-0.055439844727516174, -0.09849847853183746, 0.19657790660858154, 0.2726922631263733, -0.06782572716474533, -0.07634210586547852, 0.08758161962032318, 0.06321345269680023, -0.12607303261756897, -0.03636724501848221, -0.02173997089266777, -0.19905498623847961, -0.04883597418665886, 0.05576186999678612, -0.16956110298633575, 0.063975490629673, 0.18585734069347382, 0.1431000530719757, -0.020575160160660744, 0.09011982381343842, 0.04044511914253235, -0.1103447675704956, 0.04824469983577728, -0.08456259220838547, -0.048470377922058105, 0.11984676867723465, -0.03643423318862915, -0.008490565232932568, 0.2175282984972, -0.001945997471921146, 0.028292424976825714, 0.007654294371604919, 0.18353918194770813, 0.07727713882923126, 0.05333396792411804, 0.029414091259241104, -0.014198853634297848, 0.033780571073293686, -0.029635345563292503, -0.004643304273486137], [0.043262287974357605, -0.07833441346883774, 0.21190804243087769, 0.15644404292106628, -0.06648493558168411, -0.015490551479160786, 0.025320129469037056, 0.16964659094810486, 0.12856748700141907, 0.16252006590366364, 0.05954814329743385, -0.1542472094297409, -0.07369938492774963, -0.06641141325235367, -0.17532040178775787, 0.031002257019281387, 0.12727244198322296, 0.23468686640262604, 0.09625215828418732, -0.11249101161956787, -0.06803743541240692, 0.05301334336400032, -0.09701812267303467, 0.06572015583515167, 0.13364025950431824, 0.03418019413948059, -0.13136547803878784, 0.1498192846775055, 0.1678420603275299, 0.194196879863739, 0.021701613441109657, -0.06866652518510818, 0.22607900202274323, -0.03896245360374451, -0.14472994208335876, -0.23849307000637054, 0.14782597124576569, -0.014272555708885193, -0.0005450791213661432, -0.0071549005806446075], [0.04050125181674957, 0.15224552154541016, -0.04892674833536148, -0.12763912975788116, 0.015356349758803844, 0.037522993981838226, 0.04982345923781395, -0.08289626240730286, -0.04859117418527603, -0.0707864984869957, -0.08946314454078674, -0.06921868026256561, 0.04431328549981117, 0.09926831722259521, 0.07096166163682938, 0.02585672400891781, -0.14935815334320068, 0.025831637904047966, 0.07681111246347427, 0.07869970053434372, -0.01186951994895935, -0.006663375534117222, -0.0406012088060379, -0.09781746566295624, 0.14005985856056213, -0.05199381709098816, -0.1258370280265808, -0.009750548750162125, 0.06465310603380203, -0.13564945757389069, 0.024409964680671692, -0.11731119453907013, -0.07398340106010437, -0.02721756510436535, 0.006397441029548645, 0.05831758305430412, -0.1447206735610962, -0.024648424237966537, -0.11522473394870758, -0.016322730109095573], [0.0557536780834198, -0.017455164343118668, -0.054550882428884506, 0.18178583681583405, 0.05223378911614418, -0.12211691588163376, 0.017351815477013588, -0.05746128410100937, 0.11444592475891113, 0.11462178826332092, -0.09229821711778641, 0.047933001071214676, -0.11205501854419708, 0.0011620632139965892, -0.032094988971948624, 0.025606008246541023, 0.01577543467283249, -0.011696852743625641, -0.10118375718593597, 0.03998534753918648, -0.0673721507191658, 0.10511775314807892, 0.14206252992153168, -0.041640087962150574, -0.1133900135755539, -0.09039313346147537, -0.09913763403892517, 0.009527578949928284, 0.14446406066417694, 0.16302141547203064, 0.03524545207619667, -0.11501098424196243, 0.07649418711662292, 0.10085973888635635, 0.004040122032165527, 0.127678781747818, -0.09598109871149063, 0.08365023881196976, 0.10066206008195877, -0.0751747339963913], [-0.031446970999240875, 0.12034941464662552, 0.08042743057012558, 0.033931802958250046, -0.0677647516131401, 0.015533115714788437, 0.1709655374288559, -0.04757136106491089, 0.015915021300315857, 0.18480615317821503, -0.09152626246213913, -0.029895927757024765, -0.05589616298675537, -0.049350887537002563, -0.13241685926914215, 0.052454203367233276, -0.042394671589136124, 0.10293973982334137, -0.08741212636232376, -0.17564606666564941, -0.005825653672218323, -0.11551332473754883, -0.004370436072349548, 0.10767178237438202, 0.008405223488807678, -0.07944751530885696, 0.03880685195326805, -0.05463029444217682, 0.1474640816450119, -0.004448259714990854, 0.05946137011051178, 0.07009631395339966, 0.16206051409244537, 0.016560548916459084, 0.00701567530632019, -0.04739692807197571, 0.05439149588346481, 0.14070886373519897, 0.0009082584292627871, -0.025323020294308662], [0.05479435622692108, -0.18335968255996704, 0.04110291600227356, -0.062007416039705276, -0.16468042135238647, 0.006771788001060486, 0.04444526135921478, -0.07684648782014847, 0.11215370893478394, -0.04402414709329605, 0.17666670680046082, -0.040421321988105774, 0.15833653509616852, -0.0773608386516571, 0.18576429784297943, 0.07023893296718597, -0.03893591836094856, -0.14753980934619904, 0.1273827850818634, 0.16146963834762573, 0.02748115360736847, 0.06450802832841873, 0.04392845183610916, 0.13986040651798248, 0.05663725733757019, 0.09958872199058533, -0.01897548884153366, -0.08000224083662033, -0.11797966808080673, -0.19536073505878448, 0.2089521735906601, -0.06325307488441467, -0.1830924153327942, -0.08480993658304214, -0.09126894176006317, 0.006431255955249071, -0.03978341445326805, -0.016440648585557938, -0.15053881704807281, 0.06712493300437927], [0.07022368907928467, -0.13905344903469086, 0.3084627389907837, 0.16697174310684204, 0.004521419294178486, -0.047741420567035675, -0.041185151785612106, 0.03896678239107132, -0.011482998728752136, 0.041989073157310486, 0.19292356073856354, -0.17750601470470428, -0.18974587321281433, -0.037793852388858795, 0.08728203177452087, -0.2667194902896881, 0.3165310323238373, 0.18405601382255554, -0.05023140460252762, 0.09427319467067719, 0.10070115327835083, -0.2292313575744629, 0.20394425094127655, -0.05220742151141167, -0.1099129393696785, 0.23077504336833954, 0.10994428396224976, -0.19096903502941132, 0.18989451229572296, -0.05610059201717377, -0.02144780568778515, 0.02764815092086792, 0.06478823721408844, 0.1813572198152542, -0.11853213608264923, -0.1875302642583847, 0.11197231709957123, -0.010680219158530235, 0.22026115655899048, 0.10131020098924637], [0.021900489926338196, 0.08157961815595627, 0.08065897226333618, 0.21474890410900116, 0.04465004429221153, 0.05552828311920166, 0.06384919583797455, -0.037035632878541946, -0.09248273074626923, 0.016545141115784645, 0.027131149545311928, -0.10170020163059235, 0.038217298686504364, 0.06771611422300339, -0.05089963972568512, 0.06841126829385757, 0.1617477983236313, 0.07518712431192398, 0.06368985027074814, 0.06426970660686493, -0.07140910625457764, -0.17019595205783844, 0.13532406091690063, 0.01031430158764124, -0.034497350454330444, 0.17489561438560486, -0.08387357741594315, 0.01859818771481514, 0.007987282238900661, 0.018956439569592476, -0.08299736678600311, 0.032376036047935486, 0.1990659534931183, -0.0045415377244353294, 0.07941865921020508, -0.16017019748687744, -0.08427860587835312, 0.09221428632736206, 0.07491666078567505, -0.12243323773145676], [-0.07736208289861679, -0.009073813445866108, -0.03248569741845131, 0.11885256320238113, 0.0562969371676445, -0.13760413229465485, -0.09839177876710892, -0.02016238123178482, -0.022804290056228638, 0.1468655914068222, 0.09913266450166702, -0.07304278761148453, 0.014647496864199638, -0.10952562093734741, -0.12394213676452637, -0.08127044141292572, -0.12745483219623566, -0.12718574702739716, 0.11214590817689896, -0.010605544783174992, -0.006178125739097595, -0.05718018487095833, 0.05123183876276016, 0.05341546609997749, 0.118755042552948, 0.08306843787431717, -0.0007869356777518988, -0.02732047624886036, -0.05175933986902237, 0.1141335591673851, 0.018064243718981743, -0.10068008303642273, 0.1332189291715622, -0.12516506016254425, 0.08983057737350464, 0.18298979103565216, 0.007567875552922487, 0.15622377395629883, 0.003151683369651437, 0.1155252680182457], [-0.011533737182617188, 0.0055608064867556095, -0.10384125262498856, -0.04968476668000221, 0.05246170237660408, 0.02205030433833599, 0.06958656758069992, 0.0508723221719265, 0.031393930315971375, -0.1020529642701149, -0.07636138796806335, 0.0454116091132164, 0.059529099613428116, 0.07810078561306, -0.01856219209730625, -0.1466277837753296, -0.031001336872577667, 0.013533727265894413, -0.04888824373483658, 0.051693499088287354, -0.13956423103809357, 0.11819039285182953, -0.15100957453250885, -0.1486033797264099, -0.05776634067296982, -0.04304040968418121, -0.08672267943620682, -0.024002553895115852, -0.11589301377534866, 0.0012487355852499604, 0.07241234183311462, 0.02531418204307556, -0.06313520669937134, 0.08677943050861359, 0.10979893803596497, 0.14628492295742035, -0.12110599130392075, 0.0012981703039258718, -0.07113301008939743, -0.007939700968563557], [-0.1087631955742836, -0.15045127272605896, 0.02323801815509796, 0.005985465832054615, 0.08682385832071304, 0.08642597496509552, -0.06374534219503403, -0.13247449696063995, 0.058240920305252075, -0.017430085688829422, -0.03078456223011017, -0.005602371413260698, 0.07243461161851883, -0.09249435365200043, 0.13704463839530945, 0.10104501247406006, 0.020137647166848183, -0.19620440900325775, 0.049135319888591766, -0.002124178223311901, 0.11122438311576843, 0.008241596631705761, 0.009305646643042564, -0.13658824563026428, 0.010892778635025024, -0.212807759642601, 0.12252599745988846, -0.24913299083709717, 0.05047299712896347, -0.15831789374351501, -0.019597068428993225, -0.02652643620967865, -0.1764826774597168, 0.05954483523964882, -0.14385895431041718, -0.0561739057302475, 0.09243127703666687, 0.051528267562389374, 0.10324187576770782, 0.06694924086332321], [0.024843335151672363, -0.17121921479701996, 0.03911369666457176, -0.2924606502056122, -0.09062080085277557, 0.12450434267520905, -0.05356321483850479, 0.07077513635158539, 0.0658951848745346, -0.3008297085762024, 0.07078175246715546, 0.24479809403419495, 0.14057287573814392, -0.12668567895889282, 0.05976312607526779, 0.018017778173089027, 0.20967434346675873, -0.18142923712730408, 0.09073146432638168, -0.03578587993979454, -0.1243002787232399, -0.023475807160139084, 0.023815453052520752, -0.06268959492444992, -0.03581332415342331, -0.13984638452529907, 0.03675762191414833, -0.19102489948272705, -0.1308637112379074, -0.3456040322780609, 0.20599521696567535, -0.10028133541345596, -0.04417338967323303, -0.1819220334291458, 0.1321355104446411, -0.06650570034980774, -0.08446910977363586, 0.07584726065397263, -0.21278958022594452, 0.22275373339653015], [-0.07576194405555725, 0.13642747700214386, 0.07641176879405975, 0.009686745703220367, 0.11553533375263214, 0.008287698030471802, 0.12232249230146408, -0.0489315390586853, -0.07995200902223587, -0.028884386643767357, 0.07914318144321442, 0.14747202396392822, -0.0892128273844719, 0.03677554428577423, 0.02336542122066021, 0.0025658346712589264, 0.009188814088702202, -0.09208198636770248, 0.021199917420744896, 0.13248136639595032, -0.09194036573171616, 0.13440640270709991, 0.11886344850063324, -0.14954960346221924, -0.13428877294063568, 0.014405447989702225, 0.1350841373205185, -0.1356361210346222, 0.09383965283632278, -0.08519384264945984, 0.022369444370269775, 0.02748773992061615, 0.1806718409061432, -0.05197686702013016, 0.06943950057029724, 0.016238898038864136, 0.12526006996631622, -0.15242908895015717, -0.09032130986452103, 0.03151816129684448], [-0.0099860280752182, 0.19430306553840637, -0.050218965858221054, -0.04714321345090866, 0.026594556868076324, 0.1316150277853012, -0.03157684952020645, 0.17383618652820587, -0.03792542219161987, 0.0828801617026329, -0.023533592000603676, -0.023610414937138557, -0.03537376970052719, 0.09906350076198578, 0.10174538940191269, 0.1293068677186966, 0.062068987637758255, 0.11030782759189606, 0.06166768819093704, -0.06914018094539642, -0.026992812752723694, -0.09819255769252777, 0.11746688932180405, 0.08422604203224182, -0.082086481153965, -0.00408498989418149, 0.011238845065236092, 0.022978845983743668, -0.1100187674164772, 0.06328453123569489, 0.10582087188959122, 0.06770095229148865, 0.13895565271377563, -0.12902601063251495, -0.06224273145198822, 0.00014307747187558562, -0.10293798893690109, -0.02238382212817669, 0.11033220589160919, 0.09516070783138275], [-0.041787415742874146, -0.04129009321331978, 0.08467990905046463, 0.10927506536245346, -0.04902392625808716, -0.038250964134931564, -0.11836796253919601, 0.057867106050252914, 0.10852831602096558, -0.038902442902326584, 0.01616172306239605, 0.15388889610767365, 0.024901648983359337, -0.03402715548872948, 0.09377552568912506, 0.0678195208311081, 0.07070057094097137, 0.12377877533435822, -0.12605373561382294, -0.12314236164093018, -0.1195032149553299, 0.10012030601501465, 0.08681350946426392, -0.01889175735414028, -0.10072216391563416, 0.013881344348192215, -0.08695215731859207, -0.16760320961475372, -0.08749598264694214, 0.09615490585565567, -0.05303797870874405, 0.009243786334991455, 0.14066345989704132, -0.039187490940093994, 0.09440067410469055, 0.11757290363311768, -0.12051702290773392, 0.03672058507800102, 0.04710708186030388, 0.15014930069446564], [-0.1443558782339096, 0.22530212998390198, 0.09164213389158249, 0.08431316167116165, -0.05804779380559921, 0.1316254884004593, -0.03420756757259369, -0.10029639303684235, -0.13286510109901428, 0.1269906759262085, 0.04874042794108391, 0.06081775203347206, -0.015991711989045143, 0.11182915419340134, 0.026778271421790123, 0.08327288180589676, -0.15388375520706177, -0.005627993494272232, -0.02260781079530716, 0.08842074871063232, 0.12594342231750488, 0.10512301325798035, 0.15053749084472656, -0.04666633903980255, -0.0705767571926117, 0.029362743720412254, -0.12329865992069244, -0.09774895757436752, 0.16884228587150574, 0.21666491031646729, -0.10067471861839294, -0.07761958241462708, 0.11444835364818573, 0.05704127252101898, 0.028960496187210083, 0.04344213381409645, 0.012947024777531624, 0.04385609179735184, 0.09221658110618591, -0.04653254523873329], [-0.12832993268966675, 0.08058681339025497, -0.07048794627189636, 0.015757253393530846, 0.06113869696855545, 0.053188301622867584, 0.10296384990215302, -0.1256198287010193, -0.03288077563047409, -0.12512242794036865, 0.04963814467191696, -0.023270409554243088, -0.0804135799407959, 0.04242736101150513, 0.016138415783643723, 0.03394385427236557, -0.09213287383317947, -0.10651271790266037, -0.14837972819805145, 0.13035747408866882, 0.13011130690574646, -0.047929175198078156, -0.1375061720609665, -0.09150348603725433, -0.020723283290863037, -0.12141217291355133, 0.11618583649396896, -0.1265462338924408, 0.06763504445552826, -0.0457005612552166, 0.01775437779724598, -0.051264822483062744, -0.12460803240537643, 0.02160455472767353, -0.09792768955230713, 0.037120889872312546, 0.11092095077037811, 0.0671791136264801, -0.138828843832016, 0.09024623036384583], [-0.03229352831840515, -0.4624372720718384, 0.3955993056297302, -0.1400514841079712, 0.025255471467971802, -0.129628986120224, -0.01906566321849823, 0.502750039100647, -0.08743643760681152, 0.27115803956985474, 0.1596628874540329, -0.43597230315208435, -0.5136868357658386, -0.03153785318136215, -0.3791109025478363, -0.3695884048938751, 0.3787500560283661, 0.2657935321331024, -0.07427656650543213, -0.22555795311927795, -0.05475345253944397, -0.3995601236820221, 0.14998020231723785, 0.10987171530723572, 0.05727207660675049, 0.014905169606208801, -0.12248483300209045, 0.07874888181686401, 0.2567610442638397, -0.10271507501602173, -0.2530892491340637, 0.11216557025909424, 0.3185325264930725, 0.3497009575366974, 0.012093231081962585, -0.43670180439949036, 0.46266451478004456, 0.1299709677696228, 0.2622975707054138, 0.3499644696712494], [-0.14179778099060059, -0.03251446411013603, 0.25879302620887756, 0.22650137543678284, 0.22450534999370575, 0.018936512991786003, -0.05341941490769386, 0.018262045457959175, -0.07042413204908371, 0.21943485736846924, 0.18230468034744263, -0.061852723360061646, -0.20566293597221375, 0.05789978802204132, -0.09172871708869934, -0.16185197234153748, 0.005196541082113981, 0.22989441454410553, -0.034579239785671234, -0.055383265018463135, -0.08458733558654785, 0.018928127363324165, 0.1362692266702652, -0.14274276793003082, 0.09297625720500946, 0.02640957571566105, -0.12098433822393417, 0.010631435550749302, 0.003689212491735816, 0.13427263498306274, -0.14932440221309662, -0.07919570803642273, 0.07897677272558212, 0.13070999085903168, 0.08592411875724792, -0.2868042588233948, 0.01145402155816555, 0.1418493539094925, 0.037985194474458694, -0.0646757110953331], [-0.022861771285533905, -0.09338106960058212, 0.12412313371896744, 0.048049114644527435, 0.060756865888834, 0.019353654235601425, -0.07221018522977829, 0.09392974525690079, 0.016468942165374756, 0.0695251002907753, 0.03475716710090637, -0.016106367111206055, 0.012061531655490398, -0.06823709607124329, -0.08568768203258514, -0.10523282736539841, 0.10379445552825928, -0.0055451844818890095, -0.06021399796009064, 0.11217192560434341, 0.11144855618476868, -0.03541857376694679, 0.18228036165237427, 0.1077476516366005, -0.06817249953746796, 0.010360564105212688, -0.125690296292305, 0.10727614909410477, 0.12741954624652863, -0.03466710448265076, -0.2075796127319336, -0.11752775311470032, 0.138488307595253, 0.13285253942012787, 0.04597333073616028, -0.18821030855178833, -0.011184750124812126, -0.08232033252716064, 0.03275826945900917, -0.00965724978595972], [0.06552167236804962, -0.06455826759338379, -0.06556645780801773, 0.0032646278850734234, 0.12179289013147354, -0.1058274656534195, -0.004562591668218374, -0.10549092292785645, 0.08608695864677429, 0.1001165360212326, 0.008318117819726467, 0.12493597716093063, 0.014495117589831352, -0.13531494140625, -0.018602168187499046, 0.09119939059019089, 0.08460018038749695, 0.023892389610409737, -0.10835327208042145, -0.04585776478052139, 0.015345022082328796, 0.1495169848203659, 0.0719389095902443, -0.12413930147886276, 0.03187718987464905, -0.08566214144229889, 0.07891238480806351, -0.07148605585098267, 0.10815020650625229, -0.0893523171544075, 0.14637020230293274, 0.06301449239253998, -0.13581976294517517, -0.030723966658115387, 0.024586781859397888, -0.1087714433670044, 0.13732951879501343, 0.10322584211826324, -0.08139517903327942, 0.059501271694898605], [-0.07067695260047913, 0.06910408288240433, -0.08971554040908813, 0.08087840676307678, -0.07231613248586655, 0.1007290706038475, -0.17132264375686646, -0.10247963666915894, -0.009011805057525635, -0.13158093392848969, 0.12991856038570404, -0.05314640700817108, 0.004564456641674042, -0.10530350357294083, 0.04012409970164299, -0.12941673398017883, -0.016438838094472885, -0.06673118472099304, -0.049213092774152756, 0.11475624144077301, -0.060231633484363556, 0.12549124658107758, 0.0631142407655716, 0.11866919696331024, 0.027507469058036804, 0.1465030461549759, 0.09039942175149918, -0.018065424636006355, 0.038705796003341675, -0.0017793140141293406, 0.1433059126138687, 0.07479505240917206, -0.08410831540822983, -0.02880309894680977, 0.046544402837753296, -0.06946060061454773, -0.026095105335116386, 0.2051754742860794, -0.12309712916612625, 0.2413637638092041], [-0.07125411182641983, -0.18937228620052338, -0.06667625904083252, -0.17707712948322296, -0.015541289933025837, -0.11493460834026337, -0.06472694128751755, 0.08001526445150375, -0.1179693192243576, -0.10411713272333145, 0.08390244841575623, -0.08340021222829819, -0.02554141916334629, 0.08260349929332733, 0.13103264570236206, -0.06744208931922913, 0.040366996079683304, -0.08661138266324997, -0.046619296073913574, -0.13954554498195648, 0.04115748405456543, -0.05731315538287163, 0.21011683344841003, -0.10321740806102753, 0.12197047472000122, 0.1200031265616417, -0.09706109017133713, -0.16657641530036926, 0.18721076846122742, -0.22898899018764496, -0.14386895298957825, 0.05567613244056702, -0.02104419283568859, 0.0447542630136013, -0.0597599521279335, 0.031926125288009644, -0.016731135547161102, 0.09246911853551865, 0.1885879784822464, 0.14359867572784424], [0.039944782853126526, -0.13242819905281067, 0.014664759859442711, -0.2802758514881134, 0.148228257894516, -0.024242956191301346, -0.01394668035209179, 0.10931171476840973, 0.07049389183521271, -0.17154666781425476, 0.07329083979129791, -0.07170839607715607, -0.05164247378706932, 0.02712155319750309, 0.11240784823894501, -0.12932667136192322, 0.2169838845729828, 0.11533745378255844, -0.06466028839349747, -0.24952103197574615, 0.12261003255844116, -0.25083062052726746, 0.16196942329406738, 0.08031804859638214, 0.10593241453170776, 0.04653484374284744, -0.08880457282066345, -0.19062034785747528, 0.07229533791542053, -0.15026137232780457, -0.0457097589969635, 0.11637035012245178, 0.09523455798625946, 0.1251646876335144, -0.03146655112504959, -0.0628073439002037, 0.36370667815208435, 0.07424532622098923, 0.3115484416484833, 0.3609587848186493], [0.00036838650703430176, 0.21283315122127533, 0.11204668879508972, 0.22540916502475739, 0.19856365025043488, -0.10222281515598297, 0.046296823769807816, -0.07479419559240341, -0.11721682548522949, 0.048525627702474594, -0.10385965555906296, 0.058632392436265945, -0.09269972890615463, -0.13731931149959564, -0.15415726602077484, 0.0731414332985878, -0.16462451219558716, 0.1020435020327568, -0.0852973535656929, -0.05125437676906586, 0.011326000094413757, -0.030055031180381775, 0.06673573702573776, 0.12987302243709564, -0.03780075162649155, 0.05119810998439789, -0.09682587534189224, -0.03178853541612625, 0.016574909910559654, 0.09563035517930984, 0.13021241128444672, -0.08724536001682281, 0.1414354145526886, -0.17006145417690277, -0.034415923058986664, -0.01119327824562788, 0.059876371175050735, 0.02640240453183651, -0.06795135885477066, -0.07354035973548889], [0.13089609146118164, 0.20784735679626465, 0.16858622431755066, 0.18285182118415833, 0.16622354090213776, 0.0934179425239563, 0.027418656274676323, 0.15494774281978607, -0.09889870136976242, 0.027128776535391808, -0.04503025487065315, -0.01216126699000597, 0.05993346869945526, 0.11643897742033005, -0.023256076499819756, 0.07528287917375565, -0.17451179027557373, -0.034035827964544296, 0.0809452161192894, -0.007825175300240517, 0.026582971215248108, -0.12148000299930573, 0.04778796806931496, -0.061669424176216125, -0.02732587605714798, 0.05378124490380287, 0.12912790477275848, 0.19997091591358185, 0.16647018492221832, 0.04049583524465561, 0.028679560869932175, 0.08559824526309967, 0.06284399330615997, -0.01107590552419424, -0.11288712173700333, 0.08299411833286285, -0.017855964601039886, 0.10376833379268646, 0.1982298195362091, 0.005968817044049501], [-0.058602288365364075, -0.03273449093103409, -0.03005496971309185, 0.0016407744260504842, 0.004667012486606836, -0.11773736774921417, -0.32523152232170105, 0.18904869258403778, 0.08968402445316315, -0.08890264481306076, -0.019092675298452377, -0.0945052057504654, 0.10165973752737045, -0.11042282730340958, -0.00891060009598732, -0.047317154705524445, 0.0859634056687355, 0.0698821023106575, -0.13663789629936218, -0.08551789820194244, -0.03145063668489456, -0.0676891952753067, -0.023173648864030838, 0.05203297734260559, 0.10904574394226074, 0.009434445761144161, -0.03290705010294914, -0.06854179501533508, 0.15659603476524353, -0.08413466811180115, -0.1275036334991455, -0.09959407150745392, 0.05914773792028427, -0.005316158290952444, -0.012341201305389404, 0.1450168639421463, 0.18095365166664124, 0.17933669686317444, 0.1746368259191513, 0.046017199754714966], [-0.10523077100515366, -0.0034524863585829735, 0.07172475010156631, 0.09613756835460663, 0.03820008039474487, -0.05401463806629181, -0.0053593553602695465, 0.040706031024456024, -0.07944340258836746, 0.17303918302059174, -0.12986718118190765, 0.10933270305395126, -0.06893541663885117, -0.1521952897310257, -0.07122526317834854, 0.16543051600456238, -0.02469189092516899, 0.007818804122507572, -0.15163373947143555, 0.13155600428581238, 0.022901728749275208, 0.011349966749548912, -0.025676432996988297, 0.056639231741428375, -0.12414943426847458, 0.11687411367893219, -0.11612756550312042, 0.09370967000722885, 0.11200826615095139, 0.185797318816185, -0.034816790372133255, -0.1268792450428009, -0.030670370906591415, -0.09541841596364975, -0.03821272403001785, -0.04058340564370155, -0.10236284136772156, 0.07006598263978958, -0.015691516920924187, -0.1073908805847168], [0.006434813141822815, -0.049403030425310135, 0.04162992909550667, -0.03309578076004982, -0.029867427423596382, -0.09842747449874878, -0.07164357602596283, 0.16278739273548126, -0.025422625243663788, -0.0014252036344259977, 0.08583100885152817, -0.04782586172223091, 0.03161356970667839, 0.07757370173931122, -0.050291482359170914, -0.14964626729488373, 0.15333981812000275, 0.12569034099578857, -0.13045400381088257, 0.1174134761095047, -0.05467069894075394, -0.03121926076710224, 0.1513165980577469, 0.030135957524180412, -0.1139238178730011, 0.20089860260486603, 0.0543624609708786, -0.029213784262537956, -0.03862255811691284, -0.031228268519043922, -0.041744377464056015, 0.0641421377658844, -0.006414416711777449, -0.09117753058671951, 0.0403134822845459, 0.10486285388469696, -0.007202692795544863, 0.13452289998531342, 0.15175887942314148, 0.0015632564900442958], [-0.11506675183773041, -0.1497908979654312, 0.2667146325111389, 0.022442078217864037, 0.2869357168674469, -0.12841501832008362, -0.04199478402733803, 0.30352041125297546, -0.11631627380847931, 0.06243440508842468, 0.2174805849790573, -0.29241785407066345, -0.22468914091587067, 0.08704302459955215, -0.18879219889640808, -0.17873914539813995, 0.3073166012763977, 0.2521117627620697, 0.014632105827331543, -0.09974317997694016, -0.14493778347969055, -0.12828169763088226, -0.05834825336933136, 0.10648378729820251, 0.08807767927646637, -0.07878035306930542, 0.07830598205327988, -0.011328944005072117, 0.27332544326782227, -0.12659627199172974, -0.07119815051555634, -0.02458496391773224, 0.25546252727508545, 0.20850715041160583, 0.12816867232322693, -0.3165256679058075, 0.3472026586532593, 0.017575407400727272, 0.2944500744342804, -0.06794286519289017], [0.1378733217716217, 0.03246556594967842, 0.03161705657839775, 0.1547551453113556, 0.14735403656959534, 0.06080327555537224, 0.15504629909992218, -0.0586438849568367, -0.11280908435583115, 0.14097464084625244, 0.11993271857500076, 0.14836126565933228, -0.09972472488880157, -0.030479716137051582, 0.0953591912984848, -0.07276473194360733, 0.08878620713949203, -0.05449702590703964, -0.019838973879814148, 0.0223137978464365, 0.07642108201980591, 0.043959103524684906, 0.02090674638748169, -0.1468859314918518, -0.0793253630399704, -0.0871879830956459, -0.11039870232343674, 0.14857269823551178, 0.014165219850838184, 0.15430603921413422, 0.1256413608789444, -0.05936124175786972, 0.20049792528152466, 0.10519914329051971, 0.11488154530525208, 0.0463554672896862, 0.061288896948099136, -0.11541096121072769, -0.013344604521989822, -0.06652376800775528], [0.13890984654426575, 0.11562646925449371, 0.15267683565616608, 0.10684768855571747, 0.12879805266857147, 0.09601694345474243, 0.07840251922607422, -0.02907804399728775, 0.14195311069488525, 0.0841289833188057, -0.1397799551486969, 0.1309128701686859, -0.034955501556396484, -0.09147700667381287, -0.19353997707366943, 0.1362462043762207, 0.007121589966118336, -0.00597074069082737, 0.029786864295601845, 0.06485660374164581, -0.07127361744642258, -0.09892486035823822, 0.036780305206775665, 0.090783029794693, 0.12360674142837524, -0.14148397743701935, 0.08314425498247147, 0.12900514900684357, 0.0687921866774559, 0.23260867595672607, -0.1281975656747818, -0.11258554458618164, 0.016706962138414383, -0.03941113129258156, -0.09457263350486755, -0.010258776135742664, 0.008013677783310413, -0.0970853716135025, 0.016856078058481216, -0.15054723620414734], [-0.13288834691047668, -0.16583207249641418, 0.14082996547222137, -0.037620872259140015, 0.010294508188962936, 0.03462846949696541, -0.19529306888580322, 0.16214464604854584, -0.10616293549537659, -0.1827745884656906, 0.09076359122991562, 0.029520956799387932, 0.019434938207268715, -0.12675656378269196, 0.10100332647562027, 0.034413356333971024, 0.02620435692369938, 0.0700746551156044, -0.14130866527557373, -0.1020260602235794, -0.04887586086988449, -0.010105482302606106, 0.21937225759029388, -0.06366077810525894, -0.0612310916185379, 0.025231730192899704, 0.12425334006547928, -0.2835195064544678, 0.06572068482637405, -0.0019222348928451538, 0.10655371099710464, 0.10685965418815613, 0.017961157485842705, -0.01262301579117775, -0.06561363488435745, -0.012271173298358917, 0.04286946356296539, -0.05581799894571304, -0.06461220979690552, 0.23182369768619537], [0.05796244740486145, 0.052107613533735275, 0.15977957844734192, 0.08200546354055405, 0.01512852031737566, -0.05603804066777229, -0.2010672241449356, 0.12472349405288696, 0.00891546905040741, 0.03799089044332504, 0.10449927300214767, -0.14653481543064117, -0.09474515169858932, 0.10805461555719376, 0.09288396686315536, -0.010001049377024174, -0.035956524312496185, -0.09719721227884293, 0.06609068065881729, 0.15166325867176056, -0.13043153285980225, 0.025374166667461395, 0.17969058454036713, -0.038806263357400894, -0.06763342022895813, 0.18005134165287018, -0.13659201562404633, 0.021931979805231094, -0.011694695800542831, 0.04269202798604965, -0.12432621419429779, 0.07919853925704956, 0.14074382185935974, 0.049747370183467865, -0.044339895248413086, -0.062350235879421234, 0.019132466986775398, 0.1528937965631485, 0.15563204884529114, 0.1451754868030548], [-0.11387056112289429, -0.13237744569778442, -0.06483959406614304, -0.08298163115978241, 0.19726665318012238, -0.11968744546175003, -0.15114890038967133, 0.12588416039943695, -0.01840132474899292, 0.06503404676914215, 0.12584269046783447, -0.03329945728182793, 0.0295614805072546, 0.11143894493579865, 0.07315880060195923, 0.04741191491484642, -0.044907353818416595, -0.027108468115329742, 0.02807682380080223, -0.04343391954898834, 0.13303986191749573, -0.06899966299533844, 0.07461804896593094, 0.10222197324037552, 0.015614420175552368, 0.05837523937225342, 0.023692971095442772, -0.15605323016643524, -0.05215529724955559, -0.012092198245227337, 0.12171776592731476, -0.1126377210021019, -0.10787659138441086, -0.10226824879646301, -0.032625824213027954, -0.07962332665920258, 0.15470340847969055, 0.10045216977596283, 0.00218732631765306, 0.1467052698135376], [-0.026845641434192657, -0.03536376357078552, -0.026699820533394814, -0.014634243212640285, 0.04790106043219566, -0.007360713090747595, 0.08907781541347504, 0.159793883562088, -0.02363315224647522, -0.16078989207744598, 0.01453919243067503, -0.06863933056592941, -0.12390310317277908, 0.1277242749929428, -0.07488179951906204, 0.10813434422016144, 0.09777668118476868, -0.06468863785266876, 0.04713761806488037, -0.04704964533448219, 0.12689799070358276, 0.054078955203294754, 0.015390768647193909, 0.11773206293582916, 0.1177389919757843, -0.23913905024528503, -0.1381176859140396, -0.21578428149223328, -0.04376225918531418, -0.2696942389011383, 0.04654407128691673, -0.1186991035938263, 0.12332122772932053, 0.1113397553563118, -0.052550606429576874, -0.31096014380455017, 0.059431422501802444, -0.07976841181516647, 0.05547680705785751, 0.03339381515979767], [0.005100458860397339, -0.05672696977853775, -0.019433390349149704, 0.11404510587453842, 0.042009662836790085, -0.15250641107559204, -0.05569518357515335, 0.016944780945777893, -0.015477195382118225, 0.1929522603750229, -0.04202533885836601, 0.13931824266910553, 0.12010116130113602, -0.014050403609871864, -0.14750473201274872, -0.1262047290802002, 0.04768708720803261, 0.040898241102695465, 0.08894769847393036, 0.07704883813858032, -0.011943921446800232, -0.07334262877702713, 0.029338771477341652, -0.13764230906963348, -0.016162440180778503, -0.026101721450686455, -0.07256106287240982, -0.10919791460037231, 0.1459105908870697, 0.009966491721570492, 0.12087910622358322, 0.0034653842449188232, -0.054229769855737686, 0.0900597795844078, -0.010444030165672302, 0.029178785160183907, -0.09462513029575348, 0.11904952675104141, -0.08089160174131393, 0.006299097090959549], [-0.1441986858844757, 0.016193337738513947, 0.053706977516412735, -0.014409358613193035, 0.1469886600971222, 0.05871717631816864, -0.043562810868024826, -0.13199226558208466, -0.07000461965799332, -0.012324141338467598, -0.16558320820331573, 0.0020296075381338596, 0.06760013848543167, -0.14990051090717316, -0.194981649518013, 0.07406385242938995, -0.02698986977338791, 0.004473262466490269, 0.12573440372943878, -0.04644938185811043, -0.09768861532211304, 0.1570155769586563, -0.06000905483961105, 0.03087383694946766, 0.06808626651763916, -0.08367673307657242, 0.026792963966727257, 0.14979273080825806, 0.022452592849731445, -0.020834429189562798, 0.03855718672275543, 0.08757345378398895, -0.020346634089946747, -0.017549676820635796, -0.12831848859786987, 0.014431728981435299, -0.04383496940135956, -0.016871562227606773, 0.1485876441001892, -0.04508375748991966], [-0.06206156313419342, 0.10400142520666122, -0.10400594770908356, -0.03202188387513161, 0.11666853725910187, 0.12744762003421783, -0.2302912026643753, 0.14997421205043793, -0.08027756214141846, -0.19784434139728546, -0.01963861845433712, 0.05487732216715813, 0.1641630232334137, 0.12235411256551743, 0.1780039370059967, -0.04622333124279976, 0.10513670742511749, 0.08675172924995422, 0.12236878275871277, 0.09200073033571243, 0.08868637681007385, 0.08252868056297302, -5.771432915935293e-05, -0.029723765328526497, -0.13387921452522278, -0.11593156307935715, -0.06687386333942413, -0.013444178737699986, -0.11606721580028534, 0.014279205352067947, 0.06772228330373764, -0.05835854262113571, 0.054230015724897385, -0.05559990182518959, -0.07634548842906952, 0.09536450356245041, -0.06406202167272568, 0.1840338259935379, 0.008570486679673195, 0.1197967380285263], [-0.10373038053512573, 0.17471252381801605, 0.013691242784261703, 6.172545545268804e-05, 0.03649324178695679, 0.058666206896305084, -0.034192733466625214, 0.14769946038722992, -0.05339270085096359, 0.18148550391197205, 0.108527772128582, 0.05029939487576485, 0.0660267025232315, -0.10295780748128891, -0.12951020896434784, 0.10309659689664841, -0.07596378028392792, -0.036263272166252136, -0.11167047172784805, 0.10958284139633179, -0.13028627634048462, 0.11391259729862213, 0.12943744659423828, -0.03284718841314316, 0.038777559995651245, 0.161916121840477, 0.041301801800727844, 0.177247554063797, -0.0404244139790535, 0.22967685759067535, 0.1038358137011528, -0.1345876008272171, 0.147100031375885, -0.12570689618587494, 0.00626237690448761, 0.13090717792510986, -0.007555984891951084, 0.08761782199144363, 0.1061502993106842, 0.022977516055107117], [-0.07538002729415894, -0.06036435440182686, 0.07344522327184677, -0.13129670917987823, -0.09062464535236359, -0.08688231557607651, -0.14239461719989777, 0.17158633470535278, 0.011317461729049683, -0.09823042154312134, -0.025258950889110565, -0.1203569769859314, 0.0800488293170929, -0.13848654925823212, -0.03800072893500328, -0.09300997108221054, 0.13528572022914886, 0.04648527130484581, 0.11543607711791992, -0.01949908398091793, 0.008276477456092834, -0.03666272759437561, -0.0038137673400342464, -0.09998222440481186, 0.012152805924415588, 0.2137354165315628, -0.14707723259925842, 0.01069597527384758, -0.06438973546028137, 0.09894265234470367, 0.14029677212238312, 0.050977304577827454, 0.01413685642182827, 0.015485080890357494, -0.10789492726325989, -0.040332552045583725, 0.0894586443901062, 0.1862475574016571, 0.12941516935825348, 0.19528724253177643], [0.06461180746555328, 0.005103555042296648, -0.002164140809327364, 0.026353823021054268, 0.2622902989387512, -0.06329181790351868, -0.07893560826778412, 0.05155128240585327, 0.13761311769485474, 0.048544079065322876, 0.18187828361988068, -0.2458648830652237, -0.028215745463967323, -0.025356654077768326, -0.17528975009918213, 0.0066134692169725895, 0.03298189491033554, 0.19066178798675537, 0.13872754573822021, -0.17463693022727966, 0.047758087515830994, -0.0693221390247345, 0.12079911679029465, 0.11333012580871582, 0.02281157672405243, -0.08451320976018906, -0.0052109211683273315, -0.08540830761194229, 0.005810967646539211, -0.0765068382024765, -0.23440174758434296, -0.1219959482550621, 0.12180553376674652, -0.027000391855835915, 0.12394919991493225, 0.08670860528945923, 0.0221664160490036, 0.11414000391960144, 0.10774371027946472, 0.041696105152368546], [-0.13466155529022217, -0.04808901995420456, 0.1302931308746338, -0.03442074730992317, -0.020472025498747826, -0.08220447599887848, -0.05880625545978546, 0.12638895213603973, 0.08396191895008087, -0.03944806754589081, -0.0565696656703949, 0.000640193757135421, 0.11134891211986542, -0.15320202708244324, 0.036098334938287735, -0.11940722912549973, -0.08017163723707199, 0.12264464795589447, -0.09567707031965256, -0.01862308755517006, -0.05468378961086273, -0.04643193632364273, 0.032451022416353226, -0.06972820311784744, -0.10138525068759918, 0.059486087411642075, 0.006044555455446243, 0.14672285318374634, 0.08444914221763611, 0.12847422063350677, -0.014750799164175987, -0.027160964906215668, 0.1747613400220871, 0.08262172341346741, -0.14348208904266357, 0.06832585483789444, -0.08966687321662903, 0.13424324989318848, -0.05219033733010292, 0.0797722190618515], [0.09413169324398041, 0.011862879619002342, 0.04494186118245125, 0.0795016884803772, 0.038366418331861496, 0.02235966920852661, 0.15734684467315674, 0.01303290855139494, 0.12642112374305725, 0.19344723224639893, -0.09387301653623581, -0.11039012670516968, 0.01687566004693508, 0.0018190555274486542, -0.06531509757041931, 0.1367269903421402, 0.0020738861057907343, -0.060998693108558655, 0.06307201087474823, -0.13246570527553558, 0.13702180981636047, 0.12523047626018524, -0.10888747870922089, -0.14444468915462494, 0.12821874022483826, 0.005728239193558693, -0.04877955839037895, 0.10844748467206955, 0.13084353506565094, 0.03539184853434563, 0.09827318787574768, -0.11212021112442017, 0.019309936091303825, 0.13848192989826202, -0.041378721594810486, 0.045429229736328125, 0.14657112956047058, -0.10720822960138321, 0.1844632923603058, -0.1255004107952118], [0.08271895349025726, -0.05836545303463936, 0.06389585882425308, -0.17356805503368378, 0.06643360108137131, 0.10641505569219589, -0.10087911039590836, 0.11606824398040771, -0.0887029618024826, -0.07085299491882324, -0.10044197738170624, 0.04182089865207672, -0.10851611196994781, -0.06389081478118896, 0.06010928377509117, -0.07708403468132019, -0.12923511862754822, 0.0911463126540184, 0.02706020139157772, -0.1028730720281601, -0.09798691421747208, 0.05712058022618294, 0.1500038355588913, 0.11312750726938248, -0.03956293314695358, -0.0018858048133552074, -0.0806330069899559, -0.06240270286798477, 0.053794167935848236, -0.14024803042411804, 0.04844990000128746, 0.1415150761604309, -0.11376279592514038, 0.061295561492443085, -0.11129051446914673, 0.04044591635465622, -0.0033524902537465096, 0.17328321933746338, 0.12070111185312271, 0.035035088658332825], [0.11111074686050415, 0.07945966720581055, 0.07348556071519852, 0.05594068765640259, 0.10002939403057098, -0.09880105406045914, -0.15334054827690125, 0.15747269988059998, 0.0032328367233276367, -0.08198462426662445, 0.10899101942777634, 0.12866239249706268, -0.03669503703713417, -0.0844830870628357, 0.14857523143291473, -0.0755799189209938, -0.0955006331205368, -0.011821341700851917, -0.1407909095287323, -0.0369814932346344, -0.05311701446771622, 0.1007404550909996, -0.06864064931869507, 0.01589866355061531, -0.07906147837638855, 0.09583660960197449, 0.026103680953383446, -0.23685146868228912, 0.1497570425271988, -0.06467706710100174, 0.1181003749370575, 0.08299131691455841, 0.034775249660015106, -0.1203375905752182, 0.035451531410217285, -0.029420621693134308, 0.09968902170658112, -0.08380305022001266, 0.012381624430418015, -0.024510741233825684], [0.011576846241950989, 0.018276246264576912, -0.03992535173892975, 0.03469185531139374, -0.031072622165083885, -0.02350737527012825, -0.1256188452243805, -0.03794974461197853, -0.07607724517583847, 0.07627743482589722, 0.08695849776268005, 0.04914522171020508, -0.0722879022359848, -0.07776253670454025, -0.06069603189826012, 0.14167539775371552, 0.1132495328783989, 0.06156443804502487, -0.10330092161893845, -0.08206748217344284, 0.1353374421596527, 0.15067096054553986, 0.16941432654857635, -0.13688334822654724, -0.01444949209690094, 0.10458816587924957, 0.01279144361615181, -0.166956827044487, 0.05023739114403725, 0.0567363016307354, -0.07655803114175797, 0.07359355688095093, 0.05553656071424484, 0.07662972807884216, 0.030977174639701843, -0.0844738706946373, 0.06761875003576279, -0.058043792843818665, -0.012972382828593254, -0.02642400562763214], [-0.11601829528808594, -0.042816512286663055, -0.13175328075885773, 0.06618548929691315, -0.038717787712812424, 0.11851201206445694, 0.0984559953212738, 0.11605705320835114, -0.09282824397087097, -0.13517920672893524, -0.01238519512116909, -0.08264262974262238, -0.07741092145442963, -0.08819033205509186, 0.15658746659755707, -0.10012766718864441, 0.16107186675071716, 0.12687210738658905, -0.0033243473153561354, 0.008189287036657333, 0.04570385813713074, -0.10685209184885025, 0.09138498455286026, -0.042179107666015625, 0.06234481930732727, 0.09385397285223007, -0.14050909876823425, -0.06082342192530632, 0.057251621037721634, 0.01129717193543911, 0.14400313794612885, -0.055542632937431335, -0.04842950403690338, -0.08678627014160156, -0.09462368488311768, -0.1462012380361557, -0.1090514063835144, -0.09520966559648514, -0.1362001746892929, 0.09053546190261841], [-0.06714282184839249, 0.1330694854259491, 0.12722288072109222, 0.00047455017920583487, -0.03164992481470108, -0.0652497187256813, -0.011122824624180794, 0.15818841755390167, -0.01361134648323059, 0.1296387016773224, 0.03215571492910385, -0.07738517224788666, 0.1232573613524437, -0.11756206303834915, -0.09579356014728546, 0.1383782923221588, 0.004307689610868692, 0.05842810496687889, 0.024183783680200577, 0.18843303620815277, 0.14566358923912048, -0.028922395780682564, 0.1476721167564392, 0.040799330919981, 0.0418560653924942, 0.03287269547581673, -0.027346579357981682, 0.1637296974658966, 0.07875698804855347, 0.1168966069817543, 0.10482381284236908, -0.12125378102064133, 0.13643984496593475, -0.01816820167005062, -0.10748428851366043, 0.07057657837867737, 0.0026227780617773533, 0.02043650485575199, -0.014736246317625046, 0.06503327935934067], [-0.01865352690219879, 0.12732523679733276, 0.14580777287483215, 0.16799840331077576, 0.01949666440486908, 